762 100
</s> 0.019058 0.24066 -0.038431 0.24598 0.019268 -0.14033 -0.072243 0.015292 0.0042545 0.071608 0.13279 0.2801 -0.0755 0.14225 -0.26897 -0.21785 -0.122 0.21284 0.15669 -0.2692 -0.19905 0.19584 0.16328 -0.11799 -0.25027 0.0013979 0.28052 -0.080241 0.017678 0.053233 -0.14644 -0.11839 0.0060497 0.063163 -0.12438 0.04831 -0.028244 -0.24118 -0.15645 0.0023361 0.14201 0.10637 0.0094279 0.12988 0.022855 0.070876 0.094317 0.039239 -0.18475 0.3208 -0.014096 -0.10848 -0.17777 0.046935 0.12132 -0.14557 0.18511 0.036811 0.098103 0.23436 -0.17732 -0.090591 0.073595 -0.046432 0.11591 0.033585 -0.35239 -0.1676 0.19714 0.1391 -0.26803 0.093488 0.23215 0.023293 -0.05997 -0.015889 0.1253 0.22485 0.17795 0.0061936 0.17862 -0.086399 0.15749 -0.02493 -0.10911 -0.084364 0.15191 0.066287 0.053451 -0.15924 0.26532 -0.12366 0.31169 -0.18143 -0.046462 -0.2798 -0.0056465 -0.0090566 -0.09103 -0.070153 
a 0.028269 0.25453 -0.028552 0.2561 0.013626 -0.14954 -0.086537 0.019206 -0.013606 0.067094 0.14408 0.29471 -0.094175 0.1495 -0.28415 -0.23242 -0.12579 0.23085 0.16015 -0.28098 -0.21614 0.20575 0.17097 -0.11923 -0.27858 0.0091699 0.29418 -0.078805 0.017427 0.039547 -0.14881 -0.12854 0.021111 0.066316 -0.12998 0.050598 -0.040787 -0.24039 -0.16337 0.003791 0.12984 0.10489 0.0046102 0.14512 0.035568 0.079195 0.10855 0.04284 -0.19227 0.34123 -0.0043444 -0.12792 -0.17539 0.05523 0.1291 -0.15111 0.19353 0.034654 0.099044 0.24385 -0.18364 -0.10182 0.075558 -0.052494 0.12764 0.034292 -0.37052 -0.18715 0.19134 0.14106 -0.27569 0.098813 0.25606 0.020852 -0.06734 -0.013251 0.11802 0.23349 0.19066 0.015066 0.20167 -0.10193 0.15879 -0.013926 -0.11083 -0.07601 0.16369 0.07005 0.059289 -0.16042 0.27153 -0.13711 0.32367 -0.1813 -0.047057 -0.28314 -0.010735 -0.021007 -0.092311 -0.082921 
the 0.025562 0.22866 -0.032701 0.25416 0.012389 -0.14974 -0.080014 0.012933 -0.0069048 0.062479 0.13828 0.28646 -0.089735 0.13541 -0.27473 -0.22435 -0.12452 0.20602 0.15949 -0.27 -0.19993 0.19723 0.16203 -0.11457 -0.26661 0.011792 0.28311 -0.074991 0.016964 0.043016 -0.14474 -0.11895 0.011492 0.07434 -0.11733 0.049312 -0.033473 -0.23465 -0.16132 0.0092325 0.1264 0.097675 0.0026385 0.12804 0.037245 0.071626 0.1061 0.048663 -0.18237 0.32172 -0.0022818 -0.11657 -0.17341 0.043448 0.12992 -0.14381 0.18428 0.035122 0.095409 0.24092 -0.1699 -0.097152 0.077518 -0.050986 0.11899 0.0286 -0.34889 -0.17862 0.19647 0.13075 -0.25761 0.095124 0.24127 0.023945 -0.057914 -0.0040086 0.11704 0.22329 0.18308 0.0060564 0.19633 -0.096355 0.1478 -0.019732 -0.10551 -0.075914 0.15872 0.062762 0.060793 -0.16197 0.26192 -0.13159 0.3133 -0.17263 -0.047047 -0.27847 -0.015822 -0.013286 -0.085137 -0.0721 
I 0.03832 0.26162 -0.033614 0.25815 0.01849 -0.14548 -0.088694 0.0092411 -0.0036135 0.070802 0.13466 0.30039 -0.10003 0.14621 -0.27521 -0.23106 -0.13809 0.2143 0.17451 -0.27387 -0.21069 0.20324 0.17314 -0.11869 -0.28478 0.010548 0.30873 -0.080876 0.017407 0.047636 -0.14609 -0.11468 0.02134 0.078222 -0.12032 0.060622 -0.035063 -0.25468 -0.15947 0.017394 0.14648 0.10534 0.0075871 0.13012 0.022161 0.068442 0.10406 0.040133 -0.1808 0.34852 -0.0076963 -0.13653 -0.18052 0.038193 0.12736 -0.15408 0.19851 0.035755 0.10514 0.25563 -0.19169 -0.10849 0.066789 -0.057127 0.12708 0.032145 -0.36212 -0.19067 0.20306 0.13804 -0.27681 0.093999 0.2474 0.030417 -0.058248 -0.0073757 0.13074 0.22726 0.20035 0.0037123 0.19506 -0.10382 0.1629 -0.0034543 -0.10811 -0.075587 0.15453 0.081246 0.058223 -0.17157 0.2798 -0.1463 0.33036 -0.17775 -0.054554 -0.29493 -0.018956 -0.015717 -0.092479 -0.069815 
of 0.025302 0.24759 -0.030418 0.26589 0.013643 -0.14485 -0.080467 0.010445 -0.011191 0.063241 0.14041 0.2856 -0.088598 0.14671 -0.27249 -0.23051 -0.12327 0.21213 0.15839 -0.27003 -0.19944 0.19442 0.16663 -0.11917 -0.26087 0.0033832 0.29619 -0.086088 0.019951 0.044465 -0.13589 -0.11995 0.021877 0.077473 -0.11568 0.051523 -0.037205 -0.2353 -0.15871 0.0075439 0.13254 0.099107 0.0085189 0.1351 0.032059 0.065321 0.1022 0.0533 -0.18529 0.32406 -0.0039934 -0.11403 -0.17222 0.043206 0.12827 -0.14381 0.18636 0.039511 0.093595 0.23958 -0.17515 -0.10054 0.071648 -0.053529 0.12132 0.02761 -0.35788 -0.18372 0.19368 0.13585 -0.26902 0.10017 0.23993 0.031373 -0.066552 -0.012435 0.11157 0.21928 0.18268 0.0090871 0.19042 -0.098452 0.15176 -0.0095858 -0.11326 -0.07971 0.15731 0.07042 0.054971 -0.16046 0.27082 -0.13492 0.31654 -0.17937 -0.044091 -0.27594 -0.016281 -0.025312 -0.082853 -0.072845 
to 0.038629 0.25325 -0.033181 0.26391 0.017057 -0.14576 -0.086544 0.013904 -0.010344 0.071231 0.13887 0.29454 -0.086571 0.14395 -0.28023 -0.22525 -0.13145 0.22016 0.16693 -0.27407 -0.21301 0.20167 0.16933 -0.12289 -0.27286 0.012192 0.30305 -0.084707 0.01939 0.039613 -0.14991 -0.11514 0.013913 0.069145 -0.11776 0.051564 -0.034111 -0.24691 -0.16282 0.017045 0.13226 0.10462 0.004825 0.13696 0.032125 0.074204 0.10296 0.047298 -0.18678 0.33981 -0.0097856 -0.13298 -0.18071 0.044694 0.12833 -0.14713 0.19742 0.037721 0.097921 0.24991 -0.18137 -0.10381 0.068064 -0.052668 0.13062 0.029172 -0.36916 -0.18383 0.19231 0.14225 -0.27432 0.098422 0.25342 0.022492 -0.060539 -0.018613 0.11982 0.22211 0.18618 0.0079672 0.20003 -0.10304 0.15937 -0.0094423 -0.1084 -0.077641 0.1519 0.068324 0.059924 -0.16277 0.26746 -0.1358 0.31808 -0.1827 -0.04702 -0.28356 -0.019977 -0.016263 -0.085797 -0.073562 
my 0.039859 0.24656 -0.033138 0.25879 0.0073786 -0.15148 -0.078089 0.015123 -0.010096 0.067382 0.14125 0.29813 -0.090529 0.14233 -0.27552 -0.23429 -0.13399 0.21846 0.17343 -0.27881 -0.2043 0.20841 0.16459 -0.11683 -0.27094 0.01049 0.30363 -0.083451 0.018738 0.049127 -0.15037 -0.11966 0.013874 0.071844 -0.11929 0.057957 -0.031666 -0.25064 -0.15572 0.0095301 0.13287 0.10659 0.0069225 0.13579 0.032179 0.06937 0.11108 0.041542 -0.18443 0.34196 -0.00834 -0.12636 -0.18137 0.042909 0.13203 -0.15335 0.19685 0.037818 0.098774 0.25023 -0.18337 -0.10741 0.065735 -0.062009 0.12405 0.031782 -0.36774 -0.18692 0.19929 0.14567 -0.2774 0.097214 0.24654 0.027905 -0.060928 -0.0093235 0.1212 0.22513 0.18975 0.014402 0.20379 -0.09437 0.16165 -0.014583 -0.11493 -0.076509 0.15745 0.07265 0.06052 -0.16594 0.26764 -0.14158 0.32777 -0.18785 -0.049297 -0.28372 -0.016773 -0.022159 -0.084887 -0.083671 
in 0.028867 0.24359 -0.036779 0.25372 0.01509 -0.15322 -0.086864 0.018517 -0.010517 0.058231 0.14307 0.2871 -0.089441 0.13855 -0.27747 -0.23127 -0.12606 0.21847 0.16472 -0.2683 -0.20952 0.20007 0.16452 -0.11736 -0.27466 0.0044693 0.28704 -0.078685 0.021848 0.045475 -0.15046 -0.12093 0.02152 0.072499 -0.12202 0.05253 -0.025777 -0.24002 -0.15454 0.0063315 0.13122 0.10752 0.006697 0.1324 0.030269 0.073165 0.1107 0.04884 -0.17701 0.33153 -0.0048247 -0.12644 -0.17557 0.046018 0.12583 -0.14978 0.19265 0.036484 0.10145 0.24242 -0.17951 -0.10017 0.076305 -0.054836 0.13004 0.029588 -0.35888 -0.18435 0.1938 0.1419 -0.27043 0.099204 0.24754 0.031817 -0.060883 -0.0066452 0.1172 0.22348 0.19336 0.01096 0.19419 -0.098846 0.15907 -0.0094708 -0.10793 -0.081953 0.15942 0.06583 0.058929 -0.16658 0.26355 -0.13087 0.31158 -0.18425 -0.048442 -0.28038 -0.012291 -0.016198 -0.08662 -0.068202 
and 0.033768 0.25831 -0.032488 0.27297 0.01302 -0.15999 -0.081937 0.017319 -0.013085 0.062933 0.14382 0.30285 -0.094487 0.15148 -0.28685 -0.23942 -0.13634 0.22459 0.17362 -0.28663 -0.21256 0.20631 0.17318 -0.12523 -0.27691 0.0052742 0.30866 -0.084626 0.021036 0.048123 -0.15139 -0.12536 0.014162 0.079796 -0.12519 0.052018 -0.036555 -0.24948 -0.1622 0.0087846 0.13909 0.1087 0.0096372 0.14207 0.028239 0.076376 0.11042 0.052663 -0.19459 0.3483 -0.010173 -0.12558 -0.18518 0.050501 0.13546 -0.15185 0.20389 0.033152 0.098596 0.25468 -0.1863 -0.10584 0.07287 -0.057439 0.12857 0.032537 -0.37535 -0.19044 0.20596 0.13928 -0.28662 0.099104 0.26041 0.027438 -0.061132 -0.011456 0.13195 0.2318 0.19542 0.010663 0.20835 -0.10014 0.1604 -0.013654 -0.11848 -0.085845 0.1715 0.07274 0.061701 -0.16869 0.2788 -0.14314 0.33678 -0.18615 -0.052611 -0.29728 -0.015368 -0.017253 -0.088346 -0.078861 
this 0.028129 0.24524 -0.030669 0.2632 0.011132 -0.15054 -0.081012 0.012888 -0.010157 0.063064 0.13799 0.2912 -0.085579 0.13777 -0.27257 -0.22569 -0.1283 0.21117 0.16196 -0.27321 -0.20798 0.20023 0.16708 -0.11705 -0.27075 0.0062755 0.28795 -0.085921 0.024072 0.044275 -0.14643 -0.11972 0.020511 0.072136 -0.11931 0.051959 -0.034611 -0.23917 -0.1576 0.010987 0.13609 0.10229 0.0029925 0.13186 0.032481 0.070336 0.10227 0.04073 -0.18531 0.33069 -0.0032543 -0.1178 -0.17298 0.042105 0.12554 -0.14833 0.19445 0.040182 0.099696 0.24642 -0.17763 -0.10125 0.069923 -0.053019 0.12615 0.031687 -0.3622 -0.18397 0.19603 0.13954 -0.26594 0.097771 0.24983 0.025373 -0.060342 -0.011636 0.11913 0.22815 0.18419 0.0092792 0.19984 -0.10294 0.15322 -0.016056 -0.1123 -0.074209 0.15897 0.06912 0.058954 -0.16354 0.26735 -0.13685 0.31525 -0.18266 -0.052468 -0.28195 -0.016221 -0.016564 -0.090299 -0.071511 
on 0.03184 0.24117 -0.037103 0.25913 0.014767 -0.14328 -0.078271 0.018867 -0.0064396 0.062068 0.13881 0.28686 -0.087281 0.13521 -0.27323 -0.2255 -0.1282 0.21044 0.15988 -0.26965 -0.19879 0.1977 0.16314 -0.12088 -0.26671 0.00074074 0.28493 -0.081632 0.017924 0.044408 -0.14011 -0.11818 0.011661 0.075384 -0.12236 0.052466 -0.03238 -0.23621 -0.15835 0.0038321 0.13055 0.10077 0.0034569 0.13412 0.032201 0.074067 0.096139 0.040534 -0.18627 0.32666 -0.0051707 -0.12304 -0.16733 0.04599 0.13234 -0.14379 0.18868 0.034526 0.096957 0.24098 -0.1721 -0.099938 0.07239 -0.047214 0.12355 0.03667 -0.35263 -0.17752 0.19727 0.14387 -0.26297 0.10152 0.24435 0.01852 -0.06363 -0.0061871 0.11893 0.22464 0.19269 0.012035 0.19392 -0.093131 0.14928 -0.023185 -0.10672 -0.080744 0.15619 0.064576 0.047983 -0.15894 0.2601 -0.13215 0.31223 -0.18638 -0.04935 -0.27546 -0.0087475 -0.021682 -0.08947 -0.071166 
is 0.031971 0.24916 -0.032654 0.26817 0.015491 -0.14931 -0.083126 0.010944 -0.0073453 0.061596 0.13944 0.2947 -0.085106 0.13903 -0.28297 -0.23008 -0.12631 0.21682 0.16519 -0.28303 -0.21324 0.20497 0.16387 -0.11545 -0.27361 0.0092525 0.29315 -0.083542 0.015519 0.043553 -0.14902 -0.11932 0.018476 0.070432 -0.12188 0.054561 -0.036139 -0.24475 -0.16065 0.011695 0.1401 0.10826 0.0044845 0.13553 0.033328 0.067863 0.10455 0.046228 -0.18901 0.33658 -0.010446 -0.1248 -0.17483 0.039872 0.13145 -0.14775 0.19882 0.034735 0.10496 0.2446 -0.17959 -0.095156 0.074551 -0.050563 0.13552 0.038502 -0.36458 -0.18134 0.20238 0.14235 -0.275 0.093452 0.25356 0.02622 -0.070263 -0.015612 0.12666 0.22473 0.18827 0.0049757 0.20716 -0.096814 0.15271 -0.019646 -0.10893 -0.07467 0.16777 0.070033 0.063877 -0.17473 0.26883 -0.1354 0.32022 -0.17658 -0.048675 -0.28866 -0.021223 -0.019257 -0.089795 -0.070516 
for 0.035453 0.25443 -0.038317 0.26605 0.013719 -0.15139 -0.08542 0.012349 -0.0062452 0.065984 0.1418 0.29808 -0.090418 0.14547 -0.28085 -0.23307 -0.13471 0.22722 0.17091 -0.28986 -0.2106 0.20598 0.16837 -0.11754 -0.27572 0.014262 0.30429 -0.080395 0.02318 0.050757 -0.153 -0.12126 0.020766 0.075314 -0.12472 0.051215 -0.033884 -0.2545 -0.16711 0.01247 0.14207 0.10769 0.0078872 0.13656 0.028653 0.072913 0.11071 0.049195 -0.18892 0.34322 -0.0048828 -0.13367 -0.18417 0.044038 0.13717 -0.15284 0.20261 0.036118 0.098117 0.24917 -0.18295 -0.1088 0.070864 -0.05536 0.12556 0.03626 -0.37378 -0.1843 0.20236 0.14484 -0.27822 0.098561 0.25831 0.025411 -0.06783 -0.016113 0.12716 0.23047 0.19522 0.011817 0.20276 -0.097409 0.16465 -0.014073 -0.11123 -0.08033 0.16391 0.070909 0.059827 -0.1668 0.27274 -0.13842 0.3305 -0.18951 -0.047624 -0.29521 -0.010709 -0.019623 -0.091304 -0.076894 
was 0.030408 0.24735 -0.033017 0.26463 0.017899 -0.15493 -0.080955 0.021276 -0.0068197 0.069723 0.1425 0.3015 -0.08933 0.14175 -0.287 -0.2348 -0.12776 0.22075 0.16738 -0.28273 -0.21471 0.20108 0.16583 -0.11918 -0.27377 0.010563 0.29703 -0.082518 0.019891 0.042081 -0.14516 -0.12581 0.019685 0.069937 -0.12163 0.054128 -0.040509 -0.25009 -0.16335 0.0095718 0.14014 0.10361 0.0044996 0.14197 0.030035 0.07103 0.10529 0.043657 -0.18818 0.3366 -0.0082824 -0.125 -0.18193 0.046203 0.12996 -0.14998 0.19585 0.036101 0.099736 0.2501 -0.18317 -0.10165 0.076105 -0.05219 0.12887 0.034341 -0.37072 -0.18556 0.2049 0.14253 -0.27966 0.094407 0.25725 0.022987 -0.071018 -0.016734 0.12797 0.22969 0.18997 0.011733 0.19974 -0.097702 0.15173 -0.016166 -0.11147 -0.079956 0.17031 0.069522 0.058078 -0.16732 0.26929 -0.13615 0.32734 -0.18597 -0.050601 -0.28835 -0.013296 -0.016685 -0.090588 -0.079896 
with 0.031383 0.24661 -0.031624 0.26385 0.013558 -0.151 -0.08266 0.015059 -0.010005 0.066382 0.14047 0.29812 -0.089745 0.14428 -0.28225 -0.23203 -0.13226 0.22007 0.16552 -0.27892 -0.21535 0.19994 0.17147 -0.11655 -0.27196 0.0097817 0.3011 -0.082327 0.020516 0.046549 -0.14449 -0.12435 0.015179 0.073296 -0.12123 0.051524 -0.033169 -0.24721 -0.1635 0.011878 0.14068 0.10623 0.006013 0.13723 0.031755 0.072462 0.10405 0.044861 -0.18229 0.33814 -0.0079593 -0.12294 -0.17919 0.04365 0.12784 -0.15028 0.19366 0.034665 0.10586 0.24652 -0.17913 -0.10273 0.070464 -0.053871 0.12594 0.032561 -0.36723 -0.18554 0.20268 0.14299 -0.27658 0.098024 0.25217 0.029553 -0.064097 -0.0093737 0.12461 0.22871 0.19187 0.01269 0.20066 -0.099991 0.15672 -0.0171 -0.1113 -0.078219 0.16639 0.068718 0.061475 -0.1661 0.26873 -0.13569 0.32396 -0.18493 -0.049292 -0.28523 -0.01575 -0.01747 -0.086655 -0.076742 
from 0.029642 0.24058 -0.029479 0.25592 0.0090833 -0.14335 -0.083913 0.015299 -0.009198 0.063632 0.13799 0.29019 -0.091726 0.13732 -0.27291 -0.22526 -0.12595 0.20986 0.16028 -0.27341 -0.20681 0.19301 0.16709 -0.11911 -0.26325 0.006472 0.28734 -0.077592 0.019662 0.04316 -0.14111 -0.11952 0.015932 0.072155 -0.12317 0.050179 -0.034845 -0.2399 -0.15973 0.010925 0.13527 0.10297 0.0030804 0.13469 0.029559 0.072459 0.10065 0.042963 -0.18078 0.32801 -0.011705 -0.12255 -0.17586 0.043859 0.12721 -0.14137 0.18932 0.03763 0.096192 0.23851 -0.17712 -0.099554 0.067448 -0.050531 0.12509 0.031326 -0.35608 -0.17466 0.19453 0.13757 -0.26436 0.096154 0.24344 0.02365 -0.061135 -0.011103 0.11805 0.22539 0.1891 0.0092107 0.19 -0.094165 0.15085 -0.014967 -0.11093 -0.078434 0.1552 0.0676 0.057126 -0.16307 0.26223 -0.13411 0.31059 -0.1785 -0.050348 -0.27683 -0.010501 -0.017264 -0.082437 -0.06749 
My 0.027726 0.24715 -0.030952 0.25529 0.015928 -0.14795 -0.085335 0.013814 -0.0082411 0.060434 0.14306 0.29037 -0.083414 0.13951 -0.27709 -0.22733 -0.12783 0.22169 0.16124 -0.27283 -0.20626 0.19923 0.1671 -0.1141 -0.26565 0.008986 0.29061 -0.085351 0.020028 0.046863 -0.14677 -0.12114 0.01678 0.071549 -0.122 0.051563 -0.035019 -0.23989 -0.15285 0.0086868 0.12929 0.10552 0.010697 0.13661 0.028474 0.07499 0.10499 0.045759 -0.18075 0.33473 -0.0024344 -0.12332 -0.1759 0.044653 0.12425 -0.14975 0.19899 0.035301 0.096094 0.24293 -0.17613 -0.10439 0.073939 -0.049189 0.12813 0.036958 -0.35438 -0.17912 0.19719 0.14157 -0.27434 0.097975 0.25179 0.02509 -0.060872 -0.012375 0.12458 0.21926 0.18771 0.015193 0.19387 -0.099102 0.15186 -0.016225 -0.11026 -0.074475 0.15725 0.074456 0.059027 -0.16316 0.2649 -0.13003 0.32183 -0.17935 -0.05421 -0.28519 -0.011648 -0.016783 -0.085606 -0.076833 
at 0.030009 0.24095 -0.031031 0.25283 0.015992 -0.14986 -0.083541 0.018468 -0.0019734 0.061915 0.13703 0.28675 -0.090685 0.13534 -0.27851 -0.22505 -0.12422 0.21757 0.16016 -0.26904 -0.20037 0.19255 0.16127 -0.12244 -0.26524 0.0071551 0.28661 -0.080841 0.01693 0.048922 -0.14668 -0.12312 0.01958 0.073748 -0.11858 0.049137 -0.028847 -0.24103 -0.15403 0.0059192 0.13513 0.10885 0.0081784 0.13553 0.033324 0.067346 0.10545 0.042568 -0.18513 0.32951 -0.0069574 -0.12512 -0.17488 0.036578 0.12806 -0.14752 0.19045 0.03559 0.097885 0.24111 -0.17773 -0.10065 0.067487 -0.049245 0.12058 0.038674 -0.35275 -0.17808 0.1885 0.13965 -0.26851 0.099559 0.24267 0.023321 -0.059774 -0.012584 0.1183 0.22127 0.18596 0.007999 0.19786 -0.094824 0.14858 -0.018545 -0.10438 -0.076192 0.15522 0.068637 0.05851 -0.16531 0.26493 -0.13182 0.31765 -0.18048 -0.051451 -0.28054 -0.010673 -0.018819 -0.085339 -0.073092 
This 0.031047 0.244 -0.033387 0.26154 0.014708 -0.14697 -0.082804 0.017522 -0.0056052 0.065327 0.14367 0.29481 -0.087866 0.14457 -0.27907 -0.22628 -0.12914 0.21715 0.16399 -0.27502 -0.21007 0.19751 0.16638 -0.11671 -0.27241 0.0084501 0.29308 -0.083189 0.022402 0.04381 -0.14247 -0.12052 0.017765 0.074302 -0.11907 0.048961 -0.036144 -0.24458 -0.16002 0.010195 0.13664 0.10262 0.0069344 0.134 0.027541 0.070405 0.10297 0.046406 -0.18518 0.3337 -0.0076674 -0.12299 -0.17787 0.044499 0.12875 -0.15123 0.19702 0.035744 0.09735 0.24697 -0.17822 -0.10216 0.069922 -0.050299 0.12738 0.0345 -0.36013 -0.18525 0.19764 0.14302 -0.27431 0.10074 0.24797 0.021823 -0.060559 -0.01274 0.12385 0.22569 0.18641 0.0065866 0.19656 -0.098158 0.15264 -0.020269 -0.10954 -0.077605 0.16197 0.06955 0.059905 -0.16248 0.26665 -0.13447 0.3199 -0.18004 -0.052988 -0.28622 -0.013774 -0.017093 -0.090164 -0.069535 
me 0.033234 0.2555 -0.037016 0.27089 0.015591 -0.15199 -0.092834 0.012682 -0.014087 0.074711 0.14306 0.29587 -0.085495 0.15062 -0.28241 -0.23455 -0.13788 0.21812 0.16903 -0.29016 -0.21186 0.204 0.16855 -0.12079 -0.28282 0.0053417 0.30252 -0.084838 0.02338 0.044902 -0.14521 -0.12227 0.020134 0.076795 -0.13074 0.050887 -0.040949 -0.24894 -0.17232 0.0076177 0.14529 0.10891 0.0058332 0.14285 0.025327 0.070968 0.10948 0.04091 -0.1896 0.33773 -0.0071012 -0.12454 -0.18322 0.047097 0.12964 -0.15373 0.20071 0.037625 0.1029 0.24957 -0.18525 -0.10778 0.067552 -0.05991 0.1328 0.033581 -0.37503 -0.18536 0.20686 0.15097 -0.29012 0.10369 0.2542 0.023896 -0.065084 -0.018279 0.12044 0.22976 0.19094 0.012207 0.20857 -0.099426 0.15896 -0.013676 -0.1116 -0.078475 0.15648 0.071627 0.061917 -0.17155 0.27088 -0.13779 0.33361 -0.18965 -0.0555 -0.29343 -0.018192 -0.017064 -0.089336 -0.070951 
his 0.02981 0.24534 -0.03205 0.26153 0.011642 -0.14973 -0.0815 0.016355 -0.0095475 0.062558 0.14413 0.29498 -0.087718 0.14128 -0.27997 -0.22803 -0.12442 0.22015 0.16602 -0.27835 -0.21069 0.19639 0.16782 -0.11744 -0.27111 0.0054534 0.29385 -0.082893 0.022649 0.044716 -0.14681 -0.12349 0.011626 0.071592 -0.12227 0.050742 -0.036546 -0.24175 -0.16077 0.0052931 0.13126 0.10387 0.003854 0.14186 0.031208 0.072875 0.10194 0.04788 -0.18968 0.33799 -0.0059717 -0.1226 -0.17802 0.048248 0.12788 -0.1509 0.19587 0.03863 0.096053 0.24776 -0.18314 -0.098399 0.069658 -0.050627 0.12682 0.032408 -0.36336 -0.18503 0.20059 0.14235 -0.2794 0.099382 0.24864 0.024127 -0.067991 -0.012466 0.12284 0.22676 0.18906 0.0088668 0.20574 -0.094329 0.15468 -0.025367 -0.11386 -0.081664 0.16249 0.071196 0.061202 -0.16326 0.26624 -0.13614 0.32033 -0.18422 -0.048364 -0.28943 -0.014307 -0.017499 -0.093243 -0.070773 
it 0.03463 0.2497 -0.036562 0.2669 0.014017 -0.14692 -0.087463 0.015836 -0.0070563 0.062942 0.14222 0.30038 -0.096345 0.14372 -0.28752 -0.23253 -0.13027 0.21959 0.16999 -0.27893 -0.21117 0.19676 0.17199 -0.11982 -0.27238 0.005015 0.30094 -0.082633 0.02272 0.04742 -0.14142 -0.12334 0.016684 0.07427 -0.11691 0.048263 -0.037367 -0.25001 -0.16849 0.012308 0.13425 0.10576 0.0025802 0.13487 0.027426 0.071 0.10149 0.048767 -0.18344 0.33265 -0.0098618 -0.12716 -0.17824 0.041284 0.12873 -0.14901 0.19817 0.035888 0.10725 0.25258 -0.17774 -0.099751 0.068576 -0.051722 0.12156 0.032363 -0.36746 -0.1847 0.20568 0.14309 -0.2763 0.10235 0.24608 0.02477 -0.059578 -0.0099449 0.11766 0.23354 0.19577 0.010755 0.20196 -0.099901 0.1519 -0.013953 -0.1131 -0.078228 0.15854 0.075852 0.057381 -0.16781 0.27535 -0.13698 0.32229 -0.18617 -0.045185 -0.28771 -0.017062 -0.016701 -0.091625 -0.077898 
The 0.026225 0.24244 -0.033126 0.26032 0.014728 -0.15018 -0.081445 0.016367 -0.0054524 0.065027 0.14585 0.29707 -0.08714 0.14341 -0.28209 -0.22982 -0.12923 0.21895 0.16879 -0.27875 -0.20943 0.2033 0.16771 -0.11874 -0.27311 0.011033 0.29528 -0.075966 0.020304 0.046201 -0.14485 -0.12018 0.015405 0.074687 -0.12051 0.050205 -0.031899 -0.24237 -0.16171 0.01597 0.1363 0.10452 -0.00040736 0.13218 0.031167 0.071092 0.10255 0.045168 -0.18517 0.33595 -0.0099517 -0.12321 -0.18181 0.04518 0.12786 -0.1477 0.19426 0.039695 0.10285 0.24612 -0.18125 -0.10123 0.068183 -0.051151 0.12653 0.032612 -0.35702 -0.18652 0.2031 0.14007 -0.27161 0.098208 0.24896 0.024697 -0.05863 -0.010579 0.12472 0.22683 0.18615 0.0080848 0.19553 -0.096037 0.1549 -0.016125 -0.10868 -0.080415 0.16754 0.064718 0.061529 -0.16363 0.27207 -0.13295 0.32367 -0.18329 -0.05259 -0.28321 -0.013479 -0.019371 -0.091606 -0.07734 
her 0.02768 0.2536 -0.036897 0.26875 0.011941 -0.1544 -0.086105 0.015628 -0.012027 0.063857 0.14535 0.30295 -0.086913 0.15301 -0.29348 -0.23596 -0.13103 0.22092 0.17001 -0.28174 -0.21349 0.20316 0.16286 -0.12048 -0.27601 0.0098524 0.30393 -0.08428 0.01733 0.042962 -0.15039 -0.12776 0.020136 0.076927 -0.11947 0.04849 -0.031775 -0.25162 -0.16421 0.0099947 0.13754 0.11112 0.0099398 0.1421 0.033806 0.070724 0.10289 0.047647 -0.18861 0.34321 -0.0087109 -0.1249 -0.18338 0.046703 0.13432 -0.15433 0.19731 0.042866 0.10248 0.25221 -0.17935 -0.10502 0.073553 -0.053555 0.13153 0.036581 -0.3718 -0.18564 0.20287 0.14673 -0.2819 0.098044 0.25262 0.027507 -0.066673 -0.0138 0.11971 0.23204 0.19021 0.01049 0.20383 -0.10215 0.15613 -0.015835 -0.11228 -0.083302 0.16795 0.070569 0.059246 -0.16873 0.27354 -0.14095 0.32872 -0.18393 -0.055215 -0.29602 -0.01319 -0.01693 -0.091894 -0.07938 
that 0.028633 0.24378 -0.033404 0.26074 0.015293 -0.14987 -0.083509 0.015849 -0.0074804 0.066491 0.14002 0.29811 -0.083985 0.14017 -0.28371 -0.22807 -0.12726 0.21887 0.1618 -0.27756 -0.21177 0.20264 0.16899 -0.11848 -0.27537 0.0072757 0.29565 -0.082429 0.016706 0.045071 -0.14633 -0.125 0.012967 0.07428 -0.1225 0.052015 -0.034012 -0.24575 -0.16339 0.010139 0.14047 0.10554 0.0036334 0.13581 0.032592 0.077992 0.10125 0.043524 -0.18865 0.33518 -0.0051252 -0.12168 -0.17686 0.044288 0.12972 -0.14852 0.19541 0.036929 0.10385 0.24597 -0.17759 -0.10157 0.070161 -0.053666 0.13045 0.0376 -0.36099 -0.17968 0.20192 0.14134 -0.27109 0.098038 0.25292 0.026608 -0.063639 -0.014079 0.12322 0.22918 0.19114 0.013651 0.19412 -0.10253 0.15094 -0.015193 -0.10941 -0.079024 0.15662 0.066488 0.059409 -0.16533 0.26897 -0.13481 0.32152 -0.18521 -0.053173 -0.28299 -0.010144 -0.018298 -0.086348 -0.07393 
by 0.025653 0.2369 -0.028967 0.25422 0.011923 -0.14358 -0.083803 0.01377 -0.0032286 0.058397 0.13204 0.28955 -0.087863 0.13564 -0.27823 -0.21425 -0.12067 0.21079 0.15637 -0.27103 -0.2027 0.19729 0.15685 -0.11071 -0.25953 0.0066901 0.28615 -0.078143 0.017195 0.041242 -0.14023 -0.12184 0.012954 0.064104 -0.1218 0.046409 -0.031056 -0.23707 -0.15888 0.015267 0.1295 0.10196 0.0093285 0.13113 0.028283 0.075041 0.10347 0.042341 -0.18451 0.32318 -0.012018 -0.12053 -0.16915 0.047647 0.13059 -0.14807 0.18927 0.038965 0.099546 0.23417 -0.17091 -0.098882 0.066444 -0.045599 0.11667 0.030078 -0.34497 -0.17087 0.19749 0.13943 -0.26916 0.089176 0.23986 0.027423 -0.065154 -0.0051864 0.11926 0.2202 0.18116 0.012957 0.19305 -0.10034 0.14434 -0.011741 -0.10592 -0.076781 0.15255 0.073252 0.057211 -0.16011 0.25885 -0.13189 0.3076 -0.1781 -0.044737 -0.28058 -0.011414 -0.019192 -0.088052 -0.064763 
an 0.031743 0.24844 -0.036146 0.26685 0.015366 -0.15327 -0.083762 0.0095526 -0.0070539 0.063364 0.14234 0.30523 -0.090364 0.1447 -0.28849 -0.23789 -0.13353 0.22273 0.17317 -0.28682 -0.21583 0.20951 0.16533 -0.1186 -0.27919 0.0078165 0.2986 -0.087698 0.025847 0.051586 -0.14976 -0.12183 0.020472 0.082176 -0.12111 0.058658 -0.033443 -0.25066 -0.16645 0.0088056 0.13575 0.11002 0.0054681 0.14176 0.027351 0.071537 0.10892 0.048906 -0.18973 0.34685 -0.015065 -0.12207 -0.18458 0.054527 0.13262 -0.15107 0.19267 0.036882 0.10175 0.25296 -0.18419 -0.11039 0.070477 -0.06139 0.13036 0.034618 -0.37117 -0.18554 0.20371 0.1376 -0.28948 0.094978 0.2543 0.028585 -0.061847 -0.010068 0.13179 0.22536 0.19766 0.0073495 0.20855 -0.095775 0.15812 -0.012316 -0.11217 -0.078442 0.16913 0.070409 0.054468 -0.17171 0.27658 -0.14247 0.33105 -0.18287 -0.053336 -0.29322 -0.014312 -0.017218 -0.08762 -0.074 
A 0.025624 0.22282 -0.02885 0.2415 0.016819 -0.13893 -0.076785 0.019277 -0.008433 0.065872 0.12654 0.27692 -0.089249 0.12571 -0.26391 -0.21833 -0.1236 0.19949 0.14713 -0.25129 -0.19961 0.18428 0.16001 -0.11084 -0.2457 0.010519 0.27027 -0.075045 0.014394 0.042817 -0.13675 -0.11082 0.016286 0.065471 -0.10603 0.040505 -0.033459 -0.23135 -0.14091 0.0051768 0.11938 0.097693 0.0094622 0.12455 0.032896 0.069075 0.096654 0.037402 -0.17068 0.31019 -0.0060816 -0.12211 -0.15986 0.044681 0.11269 -0.13604 0.17684 0.040392 0.092929 0.23465 -0.15816 -0.085405 0.063703 -0.049464 0.11221 0.037894 -0.3372 -0.17396 0.18132 0.13546 -0.24391 0.091675 0.22882 0.020178 -0.056115 -0.0051997 0.11634 0.21009 0.16639 0.016704 0.18586 -0.082267 0.14307 -0.0052772 -0.098308 -0.070417 0.14253 0.061146 0.058076 -0.15156 0.24416 -0.12482 0.29318 -0.16549 -0.040219 -0.25738 -0.019684 -0.012098 -0.079939 -0.069239 
got 0.030374 0.25059 -0.030689 0.26356 0.011858 -0.14704 -0.080935 0.016573 -0.0077719 0.072945 0.13887 0.29326 -0.085898 0.13979 -0.27539 -0.22565 -0.12921 0.21378 0.16106 -0.27652 -0.20864 0.19812 0.1653 -0.11664 -0.2681 0.0076887 0.29595 -0.083856 0.020259 0.047604 -0.14553 -0.11696 0.020005 0.070909 -0.11884 0.053781 -0.034473 -0.24635 -0.16337 0.0058556 0.13839 0.10478 0.0054021 0.13745 0.026561 0.074752 0.10185 0.043901 -0.18142 0.33224 -0.004894 -0.12687 -0.17485 0.048251 0.12828 -0.1513 0.19627 0.037137 0.099931 0.24091 -0.179 -0.10571 0.069151 -0.054266 0.12576 0.028816 -0.36319 -0.18663 0.1918 0.14154 -0.27056 0.0984 0.24681 0.025974 -0.059903 -0.013184 0.12119 0.22877 0.18546 0.013295 0.1924 -0.10215 0.15475 -0.012024 -0.11137 -0.078723 0.15918 0.072448 0.05492 -0.16339 0.26903 -0.13295 0.31975 -0.18144 -0.051934 -0.28249 -0.012395 -0.019501 -0.087127 -0.074891 
after 0.030848 0.24223 -0.032034 0.25626 0.012067 -0.1458 -0.078374 0.017905 -0.006936 0.064372 0.13693 0.28617 -0.084994 0.13999 -0.27444 -0.22474 -0.12485 0.21564 0.16195 -0.27184 -0.20355 0.19598 0.16077 -0.11183 -0.26279 0.0068154 0.28901 -0.083346 0.017676 0.045235 -0.14533 -0.12236 0.018964 0.070617 -0.11583 0.048795 -0.036911 -0.24046 -0.1572 0.011438 0.13293 0.10665 0.010316 0.1359 0.027087 0.071925 0.10004 0.045847 -0.18362 0.32533 -0.0084795 -0.12253 -0.17496 0.045752 0.12589 -0.14401 0.18704 0.037324 0.096545 0.23834 -0.17475 -0.10002 0.069017 -0.048795 0.1221 0.034699 -0.35291 -0.17703 0.19291 0.13824 -0.26814 0.092982 0.24047 0.026658 -0.061319 -0.010614 0.11788 0.22327 0.18544 0.010055 0.19401 -0.093241 0.15241 -0.013643 -0.10705 -0.079479 0.15846 0.069496 0.060654 -0.15836 0.26677 -0.13496 0.31218 -0.17543 -0.048689 -0.27806 -0.010907 -0.016931 -0.083979 -0.072318 
you 0.030103 0.24224 -0.033884 0.26535 0.0099617 -0.15047 -0.087456 0.01167 -0.0088788 0.067825 0.14214 0.28561 -0.088717 0.13842 -0.27236 -0.22651 -0.12669 0.21556 0.16331 -0.27235 -0.20442 0.20168 0.16417 -0.12056 -0.26942 0.0080538 0.29197 -0.080868 0.022973 0.047273 -0.1444 -0.12211 0.017544 0.074984 -0.11997 0.052553 -0.032989 -0.2407 -0.16125 0.013299 0.13434 0.10594 0.0062844 0.13468 0.028363 0.07182 0.10173 0.046844 -0.17769 0.32729 -0.0015696 -0.12245 -0.17338 0.041157 0.12799 -0.1457 0.19099 0.043492 0.10302 0.24364 -0.17818 -0.10139 0.068334 -0.056329 0.13103 0.033517 -0.35972 -0.18437 0.19799 0.13705 -0.2656 0.096031 0.24487 0.024205 -0.065347 -0.0132 0.12039 0.22849 0.18647 0.0077437 0.19413 -0.098895 0.15034 -0.012278 -0.10491 -0.080482 0.15407 0.068306 0.060149 -0.1669 0.26829 -0.13525 0.31792 -0.1809 -0.050663 -0.27451 -0.020289 -0.019243 -0.088223 -0.071434 
just 0.029185 0.25407 -0.031211 0.26646 0.014264 -0.15462 -0.086431 0.015862 -0.0088191 0.069922 0.14213 0.30263 -0.092074 0.14719 -0.28335 -0.23734 -0.13422 0.22619 0.17034 -0.28012 -0.21638 0.20363 0.16815 -0.12109 -0.27844 0.0071024 0.30486 -0.084918 0.021543 0.047274 -0.15055 -0.12714 0.019877 0.07571 -0.1264 0.055141 -0.03831 -0.25218 -0.16465 0.011033 0.14225 0.10554 0.010681 0.13662 0.029573 0.072922 0.10638 0.047174 -0.19298 0.34358 -0.0060034 -0.13257 -0.18247 0.045296 0.13138 -0.15069 0.19707 0.037814 0.10354 0.24701 -0.18529 -0.10828 0.071978 -0.059465 0.13052 0.037604 -0.37186 -0.18605 0.20021 0.14484 -0.28177 0.098982 0.25668 0.026331 -0.065522 -0.016173 0.12473 0.22939 0.19594 0.010922 0.20579 -0.10034 0.15885 -0.010964 -0.11343 -0.083965 0.16405 0.073714 0.062163 -0.16744 0.27845 -0.1402 0.32828 -0.18793 -0.050593 -0.2877 -0.014353 -0.018081 -0.091055 -0.07031 
so 0.035508 0.25233 -0.036895 0.26582 0.013858 -0.14879 -0.08325 0.015312 -0.011514 0.06872 0.1478 0.30417 -0.095064 0.14531 -0.28428 -0.23156 -0.13584 0.22137 0.16566 -0.27848 -0.21376 0.20142 0.17428 -0.11992 -0.28089 0.011683 0.30729 -0.082777 0.022003 0.045197 -0.14687 -0.12087 0.019905 0.078135 -0.12001 0.056473 -0.036513 -0.24778 -0.1636 0.0043037 0.14267 0.10872 0.0026428 0.13838 0.025011 0.07296 0.10398 0.046543 -0.19307 0.33738 -0.007723 -0.12631 -0.18093 0.050337 0.13751 -0.15358 0.19999 0.041596 0.10159 0.24924 -0.17542 -0.10504 0.070788 -0.060038 0.13689 0.039601 -0.37438 -0.18832 0.20285 0.13504 -0.27826 0.097063 0.25851 0.026215 -0.069914 -0.017998 0.1252 0.23028 0.19692 0.017805 0.20005 -0.10258 0.15306 -0.014175 -0.12063 -0.084081 0.16348 0.067397 0.061484 -0.16409 0.27008 -0.14288 0.31994 -0.18964 -0.05485 -0.29392 -0.013757 -0.026452 -0.090343 -0.079559 
like 0.028351 0.24231 -0.031629 0.26017 0.014483 -0.14914 -0.084714 0.014456 -0.0082894 0.063066 0.13749 0.29005 -0.086528 0.14062 -0.27524 -0.22576 -0.13108 0.2182 0.16219 -0.27466 -0.20707 0.19853 0.16551 -0.11877 -0.26987 0.004768 0.29095 -0.083291 0.023493 0.046075 -0.14365 -0.1197 0.021847 0.072845 -0.12419 0.049005 -0.035238 -0.23965 -0.16064 0.0073842 0.1335 0.10116 0.0062159 0.13674 0.029291 0.072997 0.10606 0.046833 -0.18556 0.33622 -0.0039456 -0.12306 -0.175 0.04488 0.12982 -0.14813 0.19253 0.03953 0.10036 0.24494 -0.17879 -0.10395 0.068543 -0.054297 0.12374 0.034635 -0.36004 -0.1774 0.19357 0.1415 -0.27435 0.10231 0.24714 0.019694 -0.058189 -0.012664 0.11973 0.22586 0.18828 0.011813 0.1962 -0.096561 0.15311 -0.012902 -0.10977 -0.078078 0.15536 0.06793 0.05707 -0.16591 0.27229 -0.14031 0.31924 -0.18084 -0.051012 -0.28154 -0.013947 -0.01455 -0.090402 -0.072521 
but 0.031715 0.25281 -0.036478 0.26591 0.018239 -0.1494 -0.088672 0.018077 -0.0037581 0.066967 0.14904 0.30158 -0.088868 0.14558 -0.28502 -0.23298 -0.13214 0.2251 0.16996 -0.2864 -0.21233 0.20634 0.16884 -0.11819 -0.2797 0.0086231 0.30165 -0.081071 0.023218 0.046156 -0.15435 -0.12523 0.017479 0.077269 -0.12389 0.053205 -0.035287 -0.24947 -0.16932 0.013001 0.14201 0.10627 0.0067221 0.13154 0.026452 0.070437 0.10421 0.044573 -0.19101 0.34531 -0.0090247 -0.12839 -0.1799 0.045222 0.12923 -0.15639 0.19861 0.041647 0.10209 0.24902 -0.18542 -0.10698 0.073784 -0.052578 0.12847 0.031922 -0.37244 -0.18073 0.20427 0.1435 -0.28073 0.10132 0.25702 0.022689 -0.063646 -0.018044 0.11972 0.23147 0.1932 0.011969 0.20291 -0.1019 0.16233 -0.01302 -0.10745 -0.079843 0.16395 0.071181 0.061415 -0.16819 0.27543 -0.13785 0.3315 -0.18631 -0.050681 -0.29238 -0.017014 -0.019169 -0.092891 -0.073769 
have 0.034471 0.25917 -0.033719 0.27341 0.012077 -0.15451 -0.080159 0.01554 -0.011542 0.070131 0.14681 0.30873 -0.091925 0.15065 -0.28995 -0.23462 -0.13442 0.22762 0.16932 -0.28609 -0.21866 0.20624 0.17217 -0.12219 -0.2811 0.0079753 0.31002 -0.083934 0.022583 0.049509 -0.15347 -0.12666 0.015221 0.075168 -0.12728 0.055702 -0.035736 -0.25444 -0.16947 0.012424 0.14321 0.10505 0.0089933 0.14029 0.02815 0.076488 0.10675 0.045766 -0.19168 0.34765 -0.0098898 -0.12969 -0.18577 0.046139 0.13257 -0.15235 0.20353 0.04045 0.10725 0.2519 -0.1861 -0.10714 0.070143 -0.057422 0.12974 0.034172 -0.3727 -0.18948 0.20828 0.14299 -0.28491 0.098733 0.2576 0.025661 -0.064029 -0.010151 0.13068 0.23047 0.19809 0.010973 0.20298 -0.10329 0.16014 -0.013095 -0.11786 -0.083741 0.16984 0.07363 0.063433 -0.17119 0.27874 -0.14549 0.33457 -0.18585 -0.052272 -0.29152 -0.013135 -0.018633 -0.092718 -0.074694 
been 0.035113 0.25333 -0.034226 0.26925 0.015073 -0.15111 -0.08336 0.017709 -0.00601 0.070233 0.14535 0.30609 -0.08812 0.14678 -0.28895 -0.23542 -0.13609 0.2276 0.1668 -0.29163 -0.2187 0.21083 0.17596 -0.12001 -0.28196 0.0039465 0.30796 -0.086928 0.021309 0.050863 -0.14842 -0.12773 0.020291 0.074315 -0.1279 0.050879 -0.040037 -0.25804 -0.17063 0.0088959 0.14536 0.10821 0.0067059 0.1398 0.02994 0.076917 0.1051 0.042414 -0.1936 0.3499 -0.0097774 -0.13197 -0.19137 0.045407 0.13658 -0.15465 0.20386 0.040126 0.1066 0.25384 -0.18354 -0.10883 0.072028 -0.060398 0.13564 0.035135 -0.37906 -0.19023 0.20947 0.14642 -0.28368 0.10237 0.25706 0.028461 -0.066584 -0.014348 0.13005 0.23678 0.19882 0.011583 0.20553 -0.10155 0.16115 -0.014749 -0.11651 -0.083033 0.16569 0.071144 0.060475 -0.1712 0.27966 -0.14471 0.33833 -0.19378 -0.048905 -0.29813 -0.010067 -0.01958 -0.0934 -0.072238 
friend 0.03535 0.277 -0.035707 0.29135 0.01075 -0.16973 -0.090117 0.022925 -0.01291 0.074733 0.15796 0.32851 -0.10043 0.15784 -0.31388 -0.25288 -0.14857 0.24867 0.18583 -0.31201 -0.23247 0.22405 0.18262 -0.13428 -0.3046 0.011052 0.33409 -0.094049 0.026374 0.048121 -0.16515 -0.1352 0.017074 0.08597 -0.1364 0.060683 -0.037756 -0.27149 -0.18008 0.010621 0.1533 0.1138 0.006791 0.15025 0.02951 0.086747 0.11492 0.051863 -0.20873 0.37706 -0.010021 -0.14091 -0.20008 0.05131 0.14552 -0.1691 0.22215 0.039277 0.11044 0.27267 -0.20082 -0.11221 0.078213 -0.059163 0.14572 0.036562 -0.40661 -0.20304 0.22326 0.15967 -0.30607 0.11119 0.28157 0.031033 -0.070286 -0.013103 0.13541 0.25064 0.21111 0.013296 0.22384 -0.11227 0.17266 -0.019373 -0.12434 -0.086164 0.18179 0.08118 0.063328 -0.18067 0.30073 -0.15207 0.35785 -0.20104 -0.051407 -0.31987 -0.014259 -0.017805 -0.096318 -0.083191 
out 0.030846 0.24716 -0.03643 0.26392 0.013727 -0.15201 -0.081972 0.01535 -0.0063649 0.066846 0.14776 0.29721 -0.088026 0.14703 -0.28329 -0.22889 -0.12928 0.21965 0.16934 -0.27829 -0.20929 0.20253 0.16902 -0.12203 -0.27538 0.0074351 0.30103 -0.081013 0.024218 0.045654 -0.14635 -0.11907 0.01436 0.07391 -0.12154 0.047975 -0.034782 -0.24501 -0.16595 0.012689 0.1383 0.10296 0.006077 0.13532 0.028335 0.073728 0.10828 0.045195 -0.18776 0.33994 -0.0086674 -0.12904 -0.17771 0.041111 0.12583 -0.15252 0.19451 0.03627 0.098754 0.24488 -0.18275 -0.1059 0.069482 -0.050046 0.13093 0.030293 -0.36928 -0.18846 0.20041 0.14424 -0.27637 0.10269 0.25075 0.023155 -0.06945 -0.013543 0.12223 0.22787 0.19076 0.008256 0.19953 -0.10266 0.15979 -0.023419 -0.10662 -0.075517 0.16402 0.068896 0.059608 -0.17154 0.27162 -0.1369 0.33394 -0.18671 -0.049309 -0.28594 -0.015744 -0.018583 -0.088519 -0.078292 
first 0.029756 0.26138 -0.030785 0.27093 0.014585 -0.15612 -0.085656 0.012375 -0.0081074 0.070716 0.14528 0.30773 -0.094613 0.15146 -0.28461 -0.23898 -0.13365 0.22958 0.16984 -0.28718 -0.21812 0.20766 0.17295 -0.12143 -0.27797 0.0049699 0.30834 -0.084155 0.018738 0.048138 -0.14939 -0.12907 0.018076 0.078418 -0.12872 0.054331 -0.034057 -0.25434 -0.16808 0.010994 0.14554 0.10765 0.0083971 0.13933 0.028547 0.075936 0.10736 0.045299 -0.19216 0.34789 -0.0093606 -0.13078 -0.1874 0.047269 0.13344 -0.15328 0.20456 0.040271 0.1056 0.25777 -0.18817 -0.10502 0.073733 -0.055198 0.13604 0.038614 -0.37926 -0.18896 0.2037 0.14593 -0.28807 0.10277 0.25431 0.028206 -0.063888 -0.015035 0.12848 0.23278 0.19562 0.0085686 0.20594 -0.10127 0.16161 -0.013227 -0.11724 -0.082394 0.1666 0.075757 0.060007 -0.16964 0.27894 -0.14411 0.33335 -0.19293 -0.053537 -0.29628 -0.013116 -0.021628 -0.091167 -0.074886 
as 0.028224 0.24907 -0.034696 0.26153 0.018607 -0.15293 -0.08462 0.019431 -0.0061105 0.069781 0.14543 0.30285 -0.091151 0.1467 -0.28617 -0.2313 -0.13365 0.21937 0.16264 -0.27925 -0.20706 0.20389 0.16567 -0.11725 -0.27951 0.0097606 0.29822 -0.079803 0.021969 0.041072 -0.15021 -0.12017 0.015684 0.072583 -0.12045 0.057233 -0.033768 -0.24902 -0.16672 0.012511 0.13631 0.10501 0.0075331 0.13981 0.026296 0.075058 0.10741 0.049359 -0.19516 0.34335 -0.0050325 -0.12476 -0.17877 0.046593 0.13161 -0.15111 0.19686 0.038769 0.098621 0.24805 -0.18413 -0.10494 0.070773 -0.05909 0.13275 0.03373 -0.36658 -0.18567 0.20389 0.14601 -0.27957 0.098047 0.25368 0.025924 -0.070444 -0.016124 0.12641 0.23046 0.19124 0.009894 0.19667 -0.1004 0.15386 -0.013729 -0.11686 -0.074265 0.15928 0.070479 0.062331 -0.16423 0.26923 -0.14187 0.32209 -0.1853 -0.055935 -0.29109 -0.011978 -0.017221 -0.090768 -0.074218 
be 0.034634 0.25176 -0.033546 0.26784 0.013269 -0.1508 -0.078929 0.016262 -0.0049853 0.064813 0.14536 0.30888 -0.089657 0.14144 -0.28629 -0.2284 -0.13575 0.22237 0.16903 -0.28044 -0.21013 0.20336 0.17273 -0.12028 -0.27848 0.0034544 0.30416 -0.086999 0.023665 0.047977 -0.14464 -0.125 0.021351 0.0744 -0.12321 0.051342 -0.038335 -0.25204 -0.16613 0.0094479 0.14573 0.10922 0.0070852 0.13465 0.032942 0.074405 0.1038 0.04146 -0.18906 0.3463 -0.0070825 -0.12471 -0.18636 0.043243 0.13654 -0.15094 0.19494 0.045095 0.10039 0.25491 -0.18452 -0.10459 0.072691 -0.059553 0.13173 0.037201 -0.37109 -0.19233 0.20646 0.13825 -0.27997 0.096868 0.25309 0.024852 -0.066278 -0.01232 0.12939 0.23488 0.19602 0.0099292 0.20427 -0.10327 0.15963 -0.0088815 -0.11525 -0.083846 0.16094 0.06932 0.055506 -0.16668 0.27502 -0.1431 0.33297 -0.1882 -0.050567 -0.29623 -0.014592 -0.022699 -0.094726 -0.07588 
had 0.026498 0.24598 -0.031819 0.26396 0.015568 -0.14534 -0.083948 0.014643 -0.0087755 0.064467 0.14301 0.29677 -0.089986 0.13892 -0.28032 -0.22864 -0.12609 0.21644 0.16825 -0.27195 -0.21054 0.20087 0.16911 -0.11465 -0.27486 0.0052184 0.29681 -0.0798 0.017003 0.041893 -0.14514 -0.12085 0.014189 0.070024 -0.11931 0.052163 -0.035533 -0.24597 -0.15475 0.0090326 0.1357 0.10399 0.0059387 0.13248 0.03268 0.073278 0.10352 0.047647 -0.18798 0.33134 -0.0085934 -0.12611 -0.17967 0.050033 0.12619 -0.14636 0.19383 0.035776 0.10405 0.24652 -0.17958 -0.10268 0.069933 -0.05098 0.12261 0.028403 -0.36315 -0.18526 0.20171 0.14376 -0.27491 0.098211 0.24999 0.028135 -0.070616 -0.0082579 0.12446 0.22926 0.19495 0.012612 0.19552 -0.094308 0.15283 -0.012945 -0.11199 -0.079637 0.16207 0.069438 0.057291 -0.16324 0.26605 -0.13618 0.32192 -0.18326 -0.047546 -0.27737 -0.017465 -0.015974 -0.086122 -0.070936 
he 0.028651 0.2515 -0.033434 0.26615 0.018339 -0.15275 -0.084945 0.016793 -0.013927 0.066006 0.14302 0.29934 -0.085635 0.13833 -0.29076 -0.23744 -0.13291 0.22378 0.17119 -0.28378 -0.21139 0.19891 0.17103 -0.11956 -0.27117 0.0060701 0.30194 -0.082579 0.020405 0.044928 -0.1513 -0.12635 0.01531 0.075982 -0.12163 0.054125 -0.035591 -0.25308 -0.16894 0.01005 0.1356 0.10553 0.0053162 0.14331 0.032073 0.071925 0.11091 0.051198 -0.19459 0.33752 -0.006963 -0.12338 -0.18632 0.051352 0.12911 -0.15585 0.20019 0.039772 0.10176 0.25189 -0.18809 -0.10175 0.077014 -0.051229 0.12235 0.032241 -0.36989 -0.18503 0.20477 0.14288 -0.27726 0.099464 0.25427 0.028107 -0.067339 -0.014771 0.1245 0.2393 0.19056 0.012962 0.20046 -0.098774 0.1593 -0.024474 -0.11467 -0.091573 0.16348 0.069718 0.063184 -0.16747 0.2783 -0.14542 0.33123 -0.18274 -0.055235 -0.29363 -0.012132 -0.022608 -0.091642 -0.075545 
when 0.031282 0.24883 -0.035872 0.25992 0.014177 -0.15046 -0.085228 0.013642 -0.0063916 0.065486 0.145 0.2988 -0.089165 0.14204 -0.2842 -0.23145 -0.12978 0.22195 0.17019 -0.28061 -0.21093 0.20309 0.16792 -0.11756 -0.27695 0.0092205 0.29822 -0.079616 0.020094 0.046076 -0.14622 -0.12119 0.019134 0.071871 -0.12108 0.050385 -0.036371 -0.25275 -0.16815 0.01087 0.13918 0.10734 0.0086401 0.13367 0.029227 0.071953 0.10719 0.044216 -0.18475 0.34216 -0.0089645 -0.1255 -0.17973 0.044887 0.13493 -0.14957 0.19651 0.038048 0.10622 0.24709 -0.17941 -0.099749 0.07005 -0.054989 0.12886 0.034683 -0.36787 -0.1886 0.20266 0.13634 -0.27992 0.098182 0.25396 0.022867 -0.064896 -0.0086452 0.12458 0.23398 0.19122 0.0079652 0.20467 -0.10126 0.15307 -0.017044 -0.11267 -0.078763 0.16408 0.067274 0.057197 -0.16424 0.27121 -0.13669 0.32718 -0.18358 -0.046735 -0.29129 -0.016207 -0.016667 -0.089149 -0.075949 
up 0.036403 0.25315 -0.034365 0.26777 0.011736 -0.15228 -0.084042 0.012955 -0.0088169 0.069953 0.14624 0.29797 -0.084952 0.14702 -0.28269 -0.23433 -0.13155 0.22309 0.1693 -0.28357 -0.21318 0.20407 0.16974 -0.11911 -0.27926 0.00050357 0.30516 -0.087075 0.01571 0.044513 -0.1493 -0.12267 0.013564 0.080625 -0.12644 0.052653 -0.030704 -0.25034 -0.16505 0.01162 0.13773 0.10255 0.00044609 0.13679 0.029803 0.076218 0.10484 0.045564 -0.19022 0.34009 -0.010382 -0.12924 -0.18299 0.040547 0.13487 -0.1552 0.19445 0.040307 0.099247 0.25169 -0.17667 -0.10429 0.077184 -0.051594 0.13078 0.03673 -0.37322 -0.18656 0.20302 0.14845 -0.28182 0.097743 0.25386 0.023148 -0.062234 -0.0062991 0.13184 0.23584 0.19851 0.0095571 0.20358 -0.10444 0.16546 -0.014073 -0.10847 -0.087831 0.16521 0.071939 0.062437 -0.17225 0.27694 -0.13534 0.33389 -0.18913 -0.04756 -0.29641 -0.017181 -0.012622 -0.0862 -0.072001 
found 0.032208 0.25301 -0.034764 0.26715 0.011604 -0.15434 -0.084267 0.017789 -0.0077935 0.06624 0.14375 0.30178 -0.091237 0.14491 -0.28551 -0.23347 -0.13283 0.22481 0.16786 -0.28328 -0.21459 0.20937 0.16744 -0.1206 -0.27822 0.011117 0.30418 -0.08277 0.0236 0.049057 -0.1503 -0.12703 0.01718 0.07371 -0.12595 0.05423 -0.035472 -0.2511 -0.16714 0.0088068 0.13958 0.1047 0.010727 0.13762 0.0295 0.073434 0.10756 0.046674 -0.18747 0.34469 -0.0083758 -0.12781 -0.18225 0.04492 0.13492 -0.15174 0.20163 0.03826 0.098619 0.25512 -0.18472 -0.10491 0.076129 -0.054513 0.12985 0.035873 -0.37112 -0.18701 0.20311 0.14662 -0.281 0.099835 0.25581 0.027529 -0.064477 -0.0092761 0.13043 0.23102 0.19714 0.010116 0.20366 -0.098763 0.15867 -0.016452 -0.11277 -0.081021 0.1676 0.072396 0.062756 -0.16663 0.27189 -0.14215 0.33185 -0.18472 -0.049871 -0.29202 -0.011251 -0.01722 -0.091409 -0.076037 
happy 0.034481 0.27553 -0.036056 0.28398 0.013928 -0.16142 -0.090681 0.011284 -0.011436 0.073622 0.15439 0.31999 -0.096328 0.15927 -0.30403 -0.24517 -0.14172 0.23658 0.17792 -0.30066 -0.23019 0.21514 0.17956 -0.12622 -0.29446 0.0097847 0.32788 -0.088352 0.022552 0.048867 -0.1565 -0.1262 0.020459 0.082317 -0.13026 0.056543 -0.041223 -0.26796 -0.17786 0.012237 0.15079 0.10795 0.0047432 0.14692 0.026374 0.074798 0.11241 0.050195 -0.20002 0.36543 -0.014087 -0.13709 -0.19457 0.050562 0.13818 -0.16085 0.21465 0.042323 0.11095 0.2639 -0.19478 -0.10891 0.072984 -0.060852 0.13383 0.036362 -0.3976 -0.19884 0.21611 0.1527 -0.30005 0.10293 0.26825 0.027721 -0.068569 -0.011658 0.13106 0.24308 0.20351 0.0088369 0.21408 -0.10622 0.1647 -0.013272 -0.1201 -0.084023 0.17357 0.078461 0.066132 -0.17803 0.29206 -0.14536 0.34557 -0.19474 -0.052268 -0.31123 -0.016742 -0.021898 -0.094094 -0.074398 
I'm 0.029507 0.26245 -0.036539 0.27043 0.012181 -0.15213 -0.084863 0.014564 -0.009871 0.066969 0.14304 0.30854 -0.089452 0.14951 -0.29223 -0.23579 -0.13236 0.22828 0.17259 -0.29247 -0.22145 0.20588 0.17463 -0.12202 -0.27672 0.0070685 0.30993 -0.08638 0.022914 0.049083 -0.15305 -0.1314 0.022581 0.076375 -0.12791 0.056992 -0.036827 -0.25619 -0.16145 0.014646 0.14255 0.1105 0.0074611 0.14343 0.027389 0.076909 0.11127 0.046699 -0.19369 0.34682 -0.012474 -0.12995 -0.18726 0.043294 0.12983 -0.15488 0.20242 0.042424 0.10414 0.25417 -0.18326 -0.10577 0.071303 -0.05788 0.12853 0.036585 -0.3736 -0.18455 0.20379 0.14661 -0.29109 0.10341 0.26097 0.028363 -0.068572 -0.012021 0.12668 0.23243 0.19983 0.0099542 0.20463 -0.10137 0.1621 -0.015826 -0.12181 -0.083702 0.16701 0.073128 0.064098 -0.16691 0.28201 -0.14045 0.33103 -0.19244 -0.049926 -0.29131 -0.008785 -0.020087 -0.089957 -0.073992 
are 0.032085 0.25596 -0.036937 0.27114 0.013247 -0.15491 -0.088413 0.013176 -0.007207 0.067216 0.14415 0.30615 -0.090242 0.14858 -0.29607 -0.23897 -0.13381 0.22825 0.17071 -0.28727 -0.21861 0.21221 0.17837 -0.11735 -0.28823 0.010798 0.30518 -0.084574 0.022809 0.048237 -0.15156 -0.12761 0.020815 0.079244 -0.12515 0.056026 -0.038475 -0.25526 -0.16877 0.010848 0.14543 0.111 0.0040832 0.13973 0.027109 0.079143 0.10869 0.047181 -0.19429 0.34785 -0.010602 -0.12882 -0.17941 0.047368 0.13517 -0.15738 0.20354 0.039001 0.10264 0.25484 -0.18497 -0.11019 0.075282 -0.055363 0.13688 0.041071 -0.38049 -0.1902 0.20768 0.14569 -0.2831 0.10127 0.26164 0.028307 -0.067334 -0.010671 0.12681 0.23659 0.19826 0.014211 0.20998 -0.099291 0.15944 -0.017584 -0.11418 -0.081717 0.1682 0.069586 0.059255 -0.17102 0.27722 -0.14315 0.33763 -0.19189 -0.055409 -0.29879 -0.017018 -0.024241 -0.095337 -0.076329 
year 0.03949 0.25238 -0.033288 0.26684 0.012678 -0.15398 -0.086971 0.016741 -0.0074851 0.068718 0.1431 0.29745 -0.085796 0.14793 -0.28458 -0.2338 -0.13349 0.22173 0.17169 -0.28372 -0.21644 0.20768 0.17464 -0.11938 -0.27923 0.0098641 0.30933 -0.08243 0.02132 0.047364 -0.14481 -0.12408 0.01585 0.075483 -0.12594 0.059193 -0.037492 -0.25885 -0.16713 0.010621 0.1438 0.10933 0.010078 0.14104 0.024412 0.07385 0.10646 0.04434 -0.19416 0.34836 -0.0079 -0.1319 -0.18475 0.047087 0.13381 -0.14791 0.20395 0.043339 0.10064 0.25295 -0.1846 -0.10748 0.069626 -0.0557 0.12955 0.032838 -0.37387 -0.18873 0.19837 0.14714 -0.28364 0.097985 0.25556 0.027052 -0.062403 -0.0090483 0.12823 0.23413 0.1954 0.012063 0.20569 -0.10016 0.16326 -0.012277 -0.11326 -0.082872 0.16235 0.07487 0.064338 -0.17148 0.27425 -0.14218 0.33178 -0.19026 -0.051851 -0.29077 -0.013458 -0.021612 -0.088714 -0.073637 
off 0.030187 0.24956 -0.035378 0.26123 0.012397 -0.14834 -0.079911 0.017785 -0.011717 0.067431 0.14395 0.29517 -0.088847 0.14671 -0.28021 -0.22867 -0.1292 0.21829 0.16398 -0.27752 -0.21227 0.19821 0.17096 -0.11482 -0.27039 0.0042434 0.29484 -0.078843 0.022023 0.050176 -0.13841 -0.11708 0.020462 0.07748 -0.11816 0.051685 -0.034829 -0.24151 -0.16023 0.01009 0.13717 0.10587 0.00076283 0.13646 0.03178 0.072406 0.10531 0.048121 -0.18073 0.33795 -0.0074845 -0.1261 -0.17483 0.044596 0.12937 -0.14538 0.19402 0.031838 0.098291 0.24081 -0.18478 -0.102 0.074002 -0.054115 0.126 0.028565 -0.36427 -0.18276 0.199 0.13956 -0.2724 0.10106 0.24748 0.029196 -0.067452 -0.011154 0.11767 0.22832 0.19194 0.0067851 0.19367 -0.099524 0.15374 -0.014669 -0.11227 -0.078925 0.15877 0.074176 0.057176 -0.16437 0.27126 -0.14012 0.32134 -0.18138 -0.04798 -0.27933 -0.016056 -0.015937 -0.087505 -0.072726 
has 0.02779 0.24523 -0.03302 0.25861 0.018212 -0.14619 -0.078473 0.01573 -0.0084516 0.066636 0.14376 0.29607 -0.084183 0.14578 -0.27791 -0.22638 -0.13073 0.21673 0.15906 -0.27628 -0.21029 0.19601 0.16979 -0.11175 -0.26901 0.0082543 0.29476 -0.080413 0.020416 0.039661 -0.14363 -0.12484 0.019452 0.071146 -0.12218 0.050832 -0.035913 -0.24263 -0.15982 0.0070124 0.13334 0.10362 0.0028104 0.13234 0.034189 0.070962 0.10324 0.04861 -0.18467 0.32977 -0.0083682 -0.12631 -0.17423 0.049065 0.12701 -0.14474 0.19892 0.035513 0.09959 0.24796 -0.17611 -0.10016 0.068852 -0.057083 0.12516 0.032192 -0.36385 -0.18127 0.20204 0.14062 -0.2724 0.092899 0.24915 0.025912 -0.065321 -0.013201 0.12557 0.21982 0.19274 0.0067918 0.19337 -0.098611 0.15074 -0.018011 -0.1148 -0.076852 0.15861 0.070199 0.058332 -0.16624 0.26724 -0.13144 0.32208 -0.1816 -0.047603 -0.2851 -0.013578 -0.013617 -0.091086 -0.071657 
who 0.033543 0.24489 -0.031047 0.25733 0.013297 -0.1469 -0.085618 0.013845 -0.0056357 0.067337 0.14245 0.29091 -0.087378 0.14051 -0.27194 -0.22619 -0.12965 0.21877 0.15638 -0.27441 -0.20982 0.20033 0.16394 -0.11309 -0.26773 0.0028313 0.29097 -0.081164 0.017056 0.043168 -0.14158 -0.11716 0.016419 0.070701 -0.12251 0.052685 -0.032838 -0.24355 -0.16461 0.010526 0.13734 0.10328 0.0046324 0.13288 0.030624 0.076882 0.10043 0.04236 -0.1838 0.33168 -0.0050497 -0.125 -0.1748 0.03924 0.12848 -0.1495 0.19683 0.04047 0.10262 0.24346 -0.17684 -0.099772 0.069486 -0.050141 0.13006 0.035509 -0.35715 -0.17887 0.19913 0.13831 -0.26925 0.09737 0.24533 0.02656 -0.057994 -0.010764 0.12065 0.22564 0.18684 0.0086336 0.19527 -0.096945 0.15117 -0.0088708 -0.10909 -0.078758 0.16046 0.069856 0.058994 -0.16224 0.26649 -0.13449 0.31493 -0.18525 -0.048842 -0.28306 -0.01555 -0.018042 -0.081991 -0.074824 
people 0.028734 0.25094 -0.033559 0.26263 0.01583 -0.15177 -0.083737 0.013667 -0.0039631 0.065407 0.1419 0.29609 -0.087102 0.13842 -0.28536 -0.22998 -0.12713 0.21836 0.16757 -0.27968 -0.2113 0.20053 0.16706 -0.12301 -0.2736 0.0054856 0.29752 -0.082954 0.020891 0.044658 -0.1486 -0.12107 0.018142 0.071614 -0.12443 0.055573 -0.03651 -0.25041 -0.16494 0.011468 0.13921 0.10764 0.0063594 0.13689 0.0289 0.075274 0.10524 0.046668 -0.18775 0.33848 -0.0046635 -0.12425 -0.17916 0.047412 0.13102 -0.14406 0.19745 0.036152 0.10181 0.24946 -0.17853 -0.10339 0.072404 -0.053624 0.13243 0.035329 -0.36712 -0.18411 0.20113 0.14208 -0.27242 0.09953 0.25228 0.023386 -0.065578 -0.015201 0.12476 0.23378 0.19129 0.013968 0.20042 -0.099908 0.15837 -0.013793 -0.11425 -0.083372 0.16273 0.067875 0.059193 -0.16918 0.26915 -0.13619 0.32178 -0.18532 -0.050793 -0.29016 -0.01204 -0.018307 -0.092405 -0.075692 
made 0.033037 0.24812 -0.031519 0.26626 0.012202 -0.1502 -0.083197 0.013878 -0.00921 0.064345 0.14233 0.3005 -0.091146 0.14815 -0.28336 -0.2333 -0.1339 0.22301 0.17122 -0.27644 -0.21477 0.20227 0.16918 -0.11943 -0.27337 0.0065614 0.29939 -0.082961 0.018257 0.045033 -0.148 -0.12588 0.015939 0.07663 -0.1249 0.053458 -0.035457 -0.24567 -0.16194 0.0078907 0.13844 0.11115 0.0048229 0.13628 0.030893 0.076397 0.1054 0.04493 -0.18927 0.34195 -0.0048805 -0.1271 -0.18236 0.047316 0.13025 -0.15093 0.19999 0.040657 0.098092 0.24948 -0.18051 -0.10403 0.071829 -0.055876 0.1286 0.031994 -0.36927 -0.18593 0.20278 0.14072 -0.27735 0.10041 0.25515 0.024004 -0.061896 -0.013218 0.1243 0.22556 0.19366 0.012317 0.19942 -0.09586 0.15601 -0.013294 -0.11326 -0.081855 0.16389 0.069578 0.058942 -0.16371 0.27465 -0.13837 0.32728 -0.18569 -0.05551 -0.28713 -0.01146 -0.020712 -0.089423 -0.07539 
one 0.029855 0.25656 -0.036239 0.26398 0.017327 -0.15243 -0.084593 0.017418 -0.0059371 0.068193 0.14335 0.3094 -0.08971 0.14624 -0.28513 -0.23874 -0.13504 0.22656 0.17124 -0.28405 -0.21553 0.20727 0.17133 -0.12486 -0.27939 0.0038754 0.30449 -0.084146 0.023059 0.047846 -0.14898 -0.12775 0.011328 0.0771 -0.12278 0.053528 -0.035244 -0.25269 -0.16646 0.0075528 0.14133 0.10387 0.0077219 0.14068 0.029976 0.077237 0.10648 0.04609 -0.19481 0.35262 -0.005333 -0.12923 -0.18408 0.047762 0.132 -0.156 0.19902 0.037896 0.1013 0.25231 -0.18417 -0.10465 0.076151 -0.054364 0.1334 0.032229 -0.37933 -0.19022 0.20652 0.14462 -0.28353 0.10114 0.25542 0.019254 -0.064908 -0.011699 0.12797 0.23506 0.19313 0.012449 0.2056 -0.097408 0.15783 -0.018954 -0.11784 -0.085377 0.16758 0.07294 0.06093 -0.17142 0.27561 -0.13867 0.33229 -0.19251 -0.047948 -0.29473 -0.013994 -0.018372 -0.093662 -0.077051 
car 0.032709 0.24106 -0.033427 0.25177 0.012227 -0.14531 -0.080555 0.019248 -0.0014088 0.060469 0.13702 0.28962 -0.082186 0.14114 -0.27133 -0.22185 -0.12692 0.21741 0.16364 -0.26917 -0.21011 0.19723 0.15895 -0.11291 -0.26581 0.0082847 0.28839 -0.081095 0.021476 0.043601 -0.14212 -0.11941 0.014914 0.072917 -0.11575 0.050418 -0.036087 -0.23935 -0.15868 0.0081799 0.1301 0.10427 0.0079684 0.13017 0.025923 0.069211 0.10514 0.04559 -0.17857 0.32514 -0.0047829 -0.12149 -0.17313 0.044211 0.12415 -0.1465 0.19431 0.038595 0.095953 0.23836 -0.17253 -0.10005 0.068233 -0.051833 0.1243 0.034956 -0.35755 -0.178 0.19588 0.13571 -0.26392 0.092523 0.24007 0.019082 -0.060664 -0.0095468 0.12224 0.22225 0.1817 0.011568 0.19709 -0.091147 0.15343 -0.019882 -0.10245 -0.083088 0.15663 0.07177 0.056141 -0.16181 0.26228 -0.13221 0.31672 -0.17974 -0.046735 -0.27533 -0.012225 -0.020455 -0.088919 -0.074742 
(x-post 0.023451 0.22157 -0.028493 0.23793 0.013807 -0.13329 -0.078398 0.015599 -0.010541 0.059444 0.12965 0.2649 -0.085719 0.12697 -0.24971 -0.20789 -0.11593 0.19754 0.14832 -0.24905 -0.18945 0.17818 0.1502 -0.10658 -0.2435 0.006776 0.26541 -0.073202 0.019363 0.042431 -0.13035 -0.11234 0.012397 0.065413 -0.10728 0.046418 -0.030345 -0.21807 -0.14885 0.0059858 0.12491 0.090655 0.0040153 0.12316 0.03006 0.068907 0.090195 0.040798 -0.1674 0.30016 -0.0053667 -0.11231 -0.16222 0.041135 0.11542 -0.13376 0.17655 0.036674 0.089247 0.2219 -0.15944 -0.091014 0.06236 -0.046578 0.11632 0.031945 -0.33088 -0.16635 0.18002 0.12748 -0.245 0.089311 0.2269 0.01959 -0.058673 -0.013438 0.10878 0.20736 0.16969 0.011343 0.17966 -0.089782 0.13772 -0.011895 -0.10316 -0.073486 0.14726 0.065812 0.05014 -0.14752 0.2462 -0.125 0.28406 -0.16531 -0.044279 -0.25631 -0.0099695 -0.018222 -0.079643 -0.065031 
dog 0.027962 0.24475 -0.029555 0.2604 0.014897 -0.15363 -0.082244 0.018017 -0.0076021 0.063584 0.14173 0.29474 -0.093167 0.14313 -0.27321 -0.22415 -0.12793 0.21853 0.164 -0.26966 -0.21114 0.19471 0.16687 -0.11798 -0.27085 0.0083227 0.28821 -0.08208 0.023562 0.041166 -0.14568 -0.1213 0.01158 0.068545 -0.11767 0.053629 -0.032919 -0.24529 -0.15982 0.012341 0.13083 0.10412 0.0026417 0.13546 0.032567 0.071986 0.10087 0.046902 -0.17651 0.3286 -0.011154 -0.11831 -0.17341 0.046077 0.12194 -0.14535 0.19218 0.036018 0.10194 0.24371 -0.17728 -0.096512 0.069625 -0.053337 0.11862 0.035167 -0.35978 -0.18413 0.20057 0.13713 -0.26579 0.097559 0.24582 0.027923 -0.062396 -0.0072356 0.12151 0.22475 0.18639 0.0080599 0.19668 -0.097455 0.15202 -0.01493 -0.11216 -0.074229 0.15982 0.074778 0.054665 -0.16096 0.26269 -0.13155 0.31392 -0.17718 -0.049795 -0.28187 -0.0099026 -0.0199 -0.089158 -0.077492 
I've 0.034833 0.26658 -0.031715 0.27651 0.012697 -0.15632 -0.089639 0.019987 -0.0087054 0.069208 0.14552 0.31574 -0.095659 0.15322 -0.29616 -0.24325 -0.13772 0.23142 0.17438 -0.29634 -0.22796 0.21294 0.18223 -0.12753 -0.29218 0.0075151 0.31807 -0.088492 0.019796 0.052981 -0.15579 -0.12987 0.019203 0.077577 -0.13268 0.057071 -0.04124 -0.25659 -0.17008 0.015926 0.14812 0.11084 0.0066261 0.14281 0.031247 0.075507 0.11169 0.045414 -0.19749 0.35852 -0.013416 -0.13122 -0.19441 0.044754 0.13864 -0.15841 0.20935 0.039258 0.10573 0.26404 -0.19097 -0.11384 0.071824 -0.059414 0.13465 0.037037 -0.38809 -0.19713 0.2135 0.14884 -0.29536 0.1054 0.26194 0.030761 -0.067235 -0.012145 0.13625 0.24224 0.2053 0.0093644 0.20893 -0.10687 0.16535 -0.009897 -0.12332 -0.089977 0.169 0.072898 0.063983 -0.17517 0.28856 -0.14634 0.34339 -0.19724 -0.053988 -0.30566 -0.01219 -0.019697 -0.093998 -0.075777 
all 0.031718 0.25645 -0.034577 0.27087 0.014595 -0.15483 -0.088629 0.013795 -0.012047 0.073741 0.14818 0.3121 -0.093549 0.14893 -0.29229 -0.2398 -0.13355 0.22877 0.16755 -0.28857 -0.21799 0.20812 0.17191 -0.12123 -0.28448 0.011298 0.31256 -0.087115 0.023397 0.049433 -0.15336 -0.12789 0.018634 0.07795 -0.12272 0.055933 -0.037839 -0.2598 -0.17007 0.013806 0.14112 0.10877 0.0063743 0.13399 0.030817 0.075544 0.1121 0.045909 -0.19321 0.34697 -0.0080626 -0.132 -0.19062 0.047641 0.13552 -0.15536 0.20104 0.04147 0.10929 0.2565 -0.1864 -0.10817 0.075717 -0.057623 0.13059 0.032032 -0.38517 -0.1884 0.2038 0.15093 -0.2861 0.1019 0.26083 0.02595 -0.060843 -0.01395 0.12728 0.23193 0.19287 0.013139 0.20793 -0.1015 0.16508 -0.014825 -0.11478 -0.080812 0.16875 0.076493 0.065198 -0.17465 0.27947 -0.14335 0.33821 -0.18992 -0.050798 -0.3007 -0.016426 -0.018256 -0.092702 -0.073417 
:) 0.033153 0.25826 -0.03547 0.2742 0.014485 -0.15561 -0.086283 0.014469 -0.0093012 0.069964 0.14182 0.30611 -0.087825 0.14989 -0.28081 -0.24059 -0.13607 0.22592 0.17717 -0.28931 -0.21921 0.21294 0.17205 -0.12063 -0.28369 0.013105 0.30645 -0.083885 0.015502 0.046715 -0.15388 -0.1274 0.019385 0.074849 -0.12449 0.056232 -0.03819 -0.24962 -0.16846 0.0074131 0.14655 0.10314 0.0081507 0.1452 0.025321 0.077624 0.10817 0.049294 -0.19464 0.34601 -0.011405 -0.13071 -0.18798 0.052266 0.1284 -0.15557 0.20409 0.037954 0.10046 0.25746 -0.18653 -0.10907 0.073456 -0.060023 0.13149 0.038493 -0.37383 -0.19066 0.20438 0.14379 -0.28651 0.09646 0.25633 0.022715 -0.066355 -0.013142 0.12185 0.2395 0.19556 0.013804 0.2036 -0.098495 0.16252 -0.019307 -0.11387 -0.079804 0.1671 0.074434 0.064413 -0.17535 0.28092 -0.14343 0.33707 -0.18581 -0.052459 -0.29923 -0.015947 -0.017002 -0.089714 -0.078568 
old 0.030747 0.24312 -0.036783 0.25153 0.015606 -0.15021 -0.080942 0.017392 -0.0088892 0.064459 0.13923 0.29424 -0.082801 0.13954 -0.27582 -0.2249 -0.12902 0.2169 0.16514 -0.26903 -0.20125 0.19561 0.16504 -0.11359 -0.27001 0.0082856 0.2911 -0.07737 0.018101 0.046516 -0.14251 -0.1221 0.014703 0.075556 -0.1169 0.055495 -0.030852 -0.24222 -0.16186 0.013555 0.1372 0.10626 0.0066005 0.13182 0.031152 0.078426 0.10156 0.050187 -0.18384 0.3331 -0.0059246 -0.12459 -0.17854 0.044308 0.12761 -0.14481 0.18785 0.036699 0.098243 0.24147 -0.17534 -0.097881 0.070371 -0.053714 0.12966 0.0308 -0.35364 -0.17573 0.19143 0.14337 -0.27068 0.095957 0.24731 0.023694 -0.058623 -0.0075298 0.12373 0.22474 0.18801 0.007493 0.19573 -0.096999 0.15752 -0.015409 -0.1125 -0.078149 0.15935 0.071396 0.060374 -0.16049 0.26368 -0.13059 0.31568 -0.17823 -0.052311 -0.28034 -0.015345 -0.016033 -0.0841 -0.068734 
our 0.031172 0.25874 -0.034417 0.27159 0.01172 -0.16017 -0.083061 0.017906 -0.0072232 0.067669 0.14598 0.30209 -0.093053 0.14691 -0.28817 -0.23767 -0.13455 0.22669 0.17627 -0.28636 -0.21809 0.20851 0.17305 -0.12467 -0.28541 0.006899 0.31221 -0.082124 0.025976 0.050964 -0.14945 -0.12458 0.017191 0.078542 -0.12575 0.054039 -0.037215 -0.2526 -0.16571 0.0096344 0.14662 0.10983 0.0060402 0.14104 0.026598 0.079341 0.10908 0.043915 -0.18811 0.34868 -0.010173 -0.1306 -0.1872 0.049192 0.12954 -0.1534 0.20582 0.035594 0.10242 0.25459 -0.18652 -0.10803 0.070098 -0.060776 0.13365 0.033796 -0.37703 -0.19299 0.20857 0.14443 -0.28224 0.10305 0.26126 0.025348 -0.063952 -0.015948 0.12973 0.23981 0.1964 0.01339 0.20785 -0.10126 0.16057 -0.011906 -0.11118 -0.081882 0.16614 0.073708 0.05907 -0.17489 0.28554 -0.14149 0.33611 -0.18963 -0.05174 -0.29689 -0.013335 -0.020587 -0.083928 -0.075015 
they 0.032113 0.25301 -0.038634 0.27465 0.010918 -0.15294 -0.085786 0.012394 -0.0080801 0.0676 0.15211 0.3087 -0.09135 0.14966 -0.29163 -0.23756 -0.1356 0.22357 0.16684 -0.29057 -0.217 0.21219 0.17622 -0.12286 -0.2874 0.012694 0.30068 -0.082416 0.023731 0.049018 -0.15555 -0.12504 0.013016 0.072737 -0.12798 0.054975 -0.033082 -0.25581 -0.17368 0.0094069 0.14262 0.10924 0.00327 0.13873 0.032451 0.078075 0.11288 0.050069 -0.19461 0.3445 -0.0073006 -0.12942 -0.18414 0.046192 0.13701 -0.15398 0.20368 0.040417 0.10318 0.25536 -0.18402 -0.1083 0.082666 -0.05585 0.1332 0.031694 -0.37702 -0.1922 0.20954 0.14431 -0.28232 0.10098 0.25735 0.025069 -0.066825 -0.0085911 0.12569 0.23903 0.19592 0.007398 0.20955 -0.098786 0.16204 -0.016986 -0.11146 -0.079507 0.16895 0.070928 0.063849 -0.17351 0.27807 -0.1429 0.33469 -0.18856 -0.049511 -0.29775 -0.01398 -0.016749 -0.094389 -0.082175 
years 0.040035 0.26923 -0.035243 0.28727 0.011109 -0.16408 -0.091308 0.020425 -0.011642 0.071155 0.14958 0.31685 -0.096618 0.15709 -0.29923 -0.25168 -0.14289 0.23615 0.18217 -0.29945 -0.22789 0.21999 0.18222 -0.1299 -0.29639 0.010886 0.32782 -0.09023 0.0231 0.050663 -0.15662 -0.13263 0.019692 0.076853 -0.13185 0.060343 -0.04033 -0.27143 -0.17608 0.015084 0.15262 0.11482 0.009615 0.14969 0.026451 0.081458 0.11147 0.049375 -0.20488 0.3671 -0.0080635 -0.13611 -0.19797 0.048481 0.14223 -0.16225 0.21602 0.044169 0.10947 0.27001 -0.19986 -0.112 0.076446 -0.060757 0.1356 0.036955 -0.39742 -0.19954 0.21347 0.15307 -0.30099 0.10329 0.27086 0.028828 -0.06613 -0.011095 0.13623 0.24536 0.20903 0.011636 0.21713 -0.10498 0.17268 -0.012975 -0.1229 -0.087854 0.17672 0.078473 0.068231 -0.17899 0.29476 -0.15018 0.35277 -0.20195 -0.057943 -0.31031 -0.015953 -0.022486 -0.09493 -0.076401 
day 0.034479 0.25286 -0.034121 0.26472 0.016565 -0.1524 -0.086576 0.013159 -0.0074146 0.070833 0.13964 0.29554 -0.087975 0.15181 -0.27838 -0.22895 -0.13142 0.22416 0.16847 -0.28304 -0.20972 0.20176 0.16881 -0.12403 -0.27285 0.010727 0.30898 -0.08269 0.01741 0.045333 -0.14738 -0.11782 0.019413 0.072013 -0.12467 0.047559 -0.033358 -0.24908 -0.15469 0.015033 0.1402 0.099912 0.013049 0.13678 0.032671 0.075853 0.10449 0.037695 -0.18674 0.34122 -0.0080226 -0.12739 -0.18037 0.049103 0.12702 -0.15168 0.20137 0.040174 0.096412 0.25172 -0.18317 -0.10915 0.071828 -0.05748 0.12471 0.033908 -0.37166 -0.18647 0.20463 0.14242 -0.28617 0.098856 0.25137 0.027593 -0.061735 -0.017338 0.12152 0.23049 0.19729 0.012277 0.19699 -0.10625 0.16025 -0.010046 -0.11166 -0.081423 0.16046 0.073664 0.064699 -0.16606 0.27645 -0.13634 0.33358 -0.18521 -0.046967 -0.29338 -0.016834 -0.019953 -0.087555 -0.076303 
picture 0.031567 0.25531 -0.033177 0.27038 0.012425 -0.15512 -0.083145 0.018898 -0.0092324 0.06774 0.14939 0.30489 -0.090183 0.1489 -0.29075 -0.23862 -0.13721 0.22928 0.17414 -0.28742 -0.21735 0.20862 0.17741 -0.12064 -0.28205 0.0069313 0.30658 -0.08538 0.017994 0.047388 -0.15066 -0.12445 0.014056 0.081183 -0.12447 0.051187 -0.038987 -0.25638 -0.16684 0.010887 0.14032 0.10984 0.0067091 0.14102 0.031086 0.078408 0.11035 0.045274 -0.19529 0.34795 -0.0063632 -0.12868 -0.18423 0.047343 0.134 -0.15389 0.19854 0.042029 0.10339 0.25664 -0.18425 -0.10499 0.073321 -0.057108 0.13372 0.036147 -0.37974 -0.18791 0.20349 0.14923 -0.28749 0.10096 0.2643 0.027899 -0.064662 -0.012149 0.12986 0.23485 0.19763 0.010203 0.20698 -0.10266 0.15999 -0.019732 -0.11361 -0.081064 0.17168 0.071352 0.060362 -0.17208 0.28012 -0.14132 0.33656 -0.18997 -0.053661 -0.2952 -0.0124 -0.020684 -0.094212 -0.079146 
last 0.034792 0.26008 -0.033439 0.27408 0.011802 -0.15451 -0.083141 0.014247 -0.011575 0.074311 0.14532 0.30779 -0.094665 0.14695 -0.29167 -0.23775 -0.13688 0.22729 0.17717 -0.28876 -0.21931 0.2062 0.1718 -0.12968 -0.28441 0.0091206 0.30349 -0.08585 0.019033 0.047695 -0.1486 -0.12738 0.019918 0.081773 -0.12662 0.049781 -0.034072 -0.25929 -0.16733 0.0099012 0.13834 0.10748 0.0094155 0.14648 0.034403 0.077263 0.10997 0.048822 -0.19738 0.34842 -0.010424 -0.13244 -0.18896 0.047797 0.13764 -0.15577 0.19888 0.04194 0.10255 0.25556 -0.19202 -0.10507 0.074219 -0.053537 0.13095 0.034196 -0.3804 -0.18734 0.20171 0.14871 -0.28842 0.1029 0.26071 0.021489 -0.066506 -0.014551 0.12738 0.23734 0.19739 0.009644 0.2038 -0.099759 0.1625 -0.015366 -0.11649 -0.083695 0.17138 0.075268 0.057859 -0.17497 0.28318 -0.14568 0.33389 -0.19276 -0.050672 -0.29614 -0.012049 -0.017074 -0.091606 -0.078096 
their 0.032448 0.24337 -0.032306 0.26147 0.015782 -0.15149 -0.085448 0.014403 -0.0085791 0.062722 0.13879 0.29471 -0.089746 0.13894 -0.2821 -0.23149 -0.13072 0.21447 0.16381 -0.27752 -0.20795 0.20224 0.16602 -0.1172 -0.27439 0.0085742 0.29071 -0.077958 0.020184 0.045101 -0.14482 -0.1204 0.015674 0.072081 -0.12229 0.052434 -0.03256 -0.24301 -0.16532 0.007178 0.13346 0.10251 0.0030843 0.13378 0.0339 0.07572 0.10552 0.049211 -0.18427 0.3278 -0.0078726 -0.12197 -0.17481 0.044981 0.13263 -0.14756 0.19326 0.037269 0.097432 0.24884 -0.17728 -0.10339 0.072789 -0.05239 0.12971 0.03206 -0.36069 -0.18343 0.19961 0.13875 -0.27218 0.099482 0.24731 0.024235 -0.061448 -0.010313 0.1199 0.2288 0.18717 0.012509 0.19993 -0.098814 0.15344 -0.015436 -0.11041 -0.076025 0.16226 0.069099 0.059205 -0.16592 0.26914 -0.13537 0.32277 -0.18464 -0.047701 -0.28509 -0.015068 -0.015973 -0.089029 -0.072795 
she 0.026473 0.25218 -0.037297 0.26676 0.016359 -0.15054 -0.088843 0.020493 -0.0023457 0.063564 0.14409 0.30223 -0.084281 0.14198 -0.29301 -0.23426 -0.1339 0.22292 0.17164 -0.28517 -0.21561 0.20892 0.17136 -0.11774 -0.27381 0.0071133 0.30399 -0.083702 0.02159 0.049735 -0.15424 -0.12491 0.018499 0.080551 -0.12488 0.052365 -0.036124 -0.25089 -0.16834 0.013537 0.14278 0.10748 0.0051377 0.14061 0.031051 0.079277 0.10183 0.044702 -0.19348 0.34214 -0.0065242 -0.12374 -0.18797 0.04863 0.13284 -0.15602 0.20237 0.039094 0.10131 0.24911 -0.18479 -0.10313 0.076356 -0.055279 0.12837 0.03599 -0.36989 -0.18524 0.20787 0.14556 -0.28115 0.1005 0.25526 0.024049 -0.061799 -0.013564 0.12486 0.23267 0.19506 0.010796 0.20314 -0.09825 0.16002 -0.01578 -0.11059 -0.086121 0.16783 0.070781 0.062313 -0.1688 0.27716 -0.14052 0.3291 -0.18763 -0.054513 -0.29584 -0.012636 -0.024166 -0.09063 -0.071561 
what 0.030226 0.23778 -0.032669 0.25104 0.018658 -0.14268 -0.08429 0.016545 -0.007271 0.05828 0.13954 0.28504 -0.084594 0.1373 -0.27204 -0.2236 -0.12498 0.21407 0.15683 -0.26834 -0.20448 0.1977 0.16122 -0.11575 -0.26318 0.0072756 0.28503 -0.076826 0.019129 0.041175 -0.14195 -0.1205 0.013613 0.072365 -0.11479 0.048647 -0.03278 -0.23903 -0.16147 0.0059746 0.1355 0.10749 0.0062054 0.1336 0.028642 0.070708 0.097914 0.042551 -0.17873 0.32674 -0.0076544 -0.11804 -0.17307 0.037305 0.12534 -0.14219 0.1921 0.032736 0.1033 0.23545 -0.1729 -0.092018 0.064603 -0.048279 0.12453 0.03854 -0.34975 -0.17639 0.1923 0.13715 -0.26206 0.094637 0.24192 0.022849 -0.061155 -0.010888 0.11875 0.21969 0.18199 0.0088172 0.19065 -0.09773 0.14961 -0.011495 -0.10306 -0.078784 0.15554 0.062013 0.055829 -0.16007 0.26001 -0.13039 0.30926 -0.17869 -0.04943 -0.27508 -0.012275 -0.018521 -0.085401 -0.070302 
man 0.031288 0.27013 -0.038972 0.28579 0.015927 -0.16215 -0.091272 0.020111 -0.0057326 0.074124 0.15172 0.32416 -0.10263 0.15595 -0.304 -0.24955 -0.14569 0.24006 0.18077 -0.30643 -0.23185 0.22325 0.18568 -0.12788 -0.30003 0.0074248 0.32814 -0.087591 0.021533 0.048911 -0.15795 -0.13221 0.01647 0.08359 -0.12967 0.055442 -0.037368 -0.26362 -0.17484 0.011417 0.15127 0.11598 0.0049158 0.14733 0.028351 0.077302 0.11206 0.049674 -0.20242 0.37049 -0.013948 -0.1399 -0.19521 0.049666 0.14161 -0.16406 0.21281 0.044593 0.11317 0.26835 -0.20083 -0.11273 0.080328 -0.060432 0.13969 0.035761 -0.40045 -0.19734 0.21778 0.15423 -0.30224 0.10553 0.27346 0.028068 -0.071953 -0.011161 0.13503 0.24841 0.21066 0.0077655 0.21787 -0.10819 0.16609 -0.0091524 -0.12289 -0.084984 0.17595 0.077466 0.064421 -0.17911 0.2999 -0.15244 0.35339 -0.20021 -0.053124 -0.31421 -0.016811 -0.020482 -0.093989 -0.081336 
while 0.029599 0.24206 -0.03332 0.25191 0.015119 -0.14465 -0.082674 0.015915 -0.0064289 0.06451 0.14023 0.2909 -0.090872 0.14066 -0.27255 -0.2242 -0.12743 0.21827 0.16734 -0.27355 -0.2042 0.19833 0.16225 -0.11481 -0.27007 0.0065617 0.28801 -0.079994 0.022688 0.044395 -0.14252 -0.12103 0.016257 0.07225 -0.11899 0.055025 -0.034562 -0.24271 -0.16205 0.010717 0.13166 0.10365 0.0028709 0.13485 0.028564 0.071819 0.099929 0.047001 -0.18308 0.33005 -0.009069 -0.12284 -0.17489 0.043144 0.12578 -0.14409 0.19102 0.035711 0.09758 0.24471 -0.1778 -0.095146 0.070082 -0.050489 0.1276 0.032291 -0.35795 -0.17752 0.19605 0.13678 -0.27008 0.093301 0.24798 0.024395 -0.059547 -0.011647 0.12004 0.22619 0.18432 0.012029 0.19492 -0.098127 0.15164 -0.014013 -0.10696 -0.078764 0.16068 0.067969 0.057648 -0.16156 0.2654 -0.13484 0.31647 -0.18188 -0.047051 -0.28337 -0.012203 -0.017544 -0.087291 -0.072025 
your 0.029476 0.24207 -0.032351 0.25905 0.014543 -0.1495 -0.084759 0.016065 -0.0035104 0.061279 0.14115 0.28525 -0.08897 0.13827 -0.27378 -0.22709 -0.12631 0.21428 0.16499 -0.2722 -0.20458 0.19779 0.16583 -0.11555 -0.26944 0.0085107 0.28956 -0.079212 0.024053 0.045149 -0.14461 -0.11852 0.016128 0.075018 -0.12117 0.051155 -0.035474 -0.23757 -0.16182 0.01002 0.13418 0.10108 0.0066189 0.13268 0.030545 0.072362 0.10256 0.040923 -0.17553 0.32524 -0.0066564 -0.11814 -0.17498 0.044311 0.12528 -0.14222 0.19233 0.037453 0.10019 0.24017 -0.17697 -0.094859 0.069871 -0.056141 0.12802 0.030001 -0.3581 -0.18285 0.19786 0.13731 -0.26421 0.094752 0.24408 0.02337 -0.061478 -0.014417 0.12128 0.22543 0.18619 0.0082725 0.19511 -0.097037 0.1545 -0.011923 -0.102 -0.079889 0.15453 0.069364 0.059669 -0.16542 0.26804 -0.13318 0.31656 -0.17843 -0.051496 -0.2764 -0.012931 -0.018976 -0.086071 -0.069933 
some 0.032194 0.25339 -0.035888 0.27295 0.016686 -0.15786 -0.092519 0.013872 -0.011158 0.06834 0.14937 0.31552 -0.096849 0.15043 -0.29183 -0.24013 -0.13702 0.22965 0.17507 -0.29023 -0.21722 0.21117 0.17447 -0.12252 -0.28847 0.012635 0.30946 -0.085954 0.021386 0.046797 -0.15266 -0.12686 0.017035 0.075187 -0.12475 0.059099 -0.037712 -0.25888 -0.17107 0.010893 0.13986 0.11051 0.002814 0.14125 0.034519 0.076829 0.10649 0.047725 -0.19015 0.34983 -0.0078952 -0.12831 -0.18802 0.05023 0.13523 -0.15393 0.20594 0.037207 0.10383 0.25936 -0.1879 -0.10538 0.074932 -0.057747 0.13606 0.032172 -0.38338 -0.19392 0.20687 0.14943 -0.29081 0.10101 0.26286 0.024892 -0.065641 -0.015422 0.12872 0.23694 0.19613 0.01076 0.20919 -0.10068 0.16098 -0.017091 -0.115 -0.085316 0.17021 0.069583 0.062374 -0.17124 0.28216 -0.14369 0.33729 -0.19317 -0.054094 -0.29961 -0.014543 -0.020692 -0.092206 -0.078681 
little 0.029398 0.2544 -0.035475 0.26204 0.016865 -0.14863 -0.086242 0.016728 -0.0060433 0.066296 0.14106 0.29546 -0.095099 0.14532 -0.28121 -0.23182 -0.13113 0.22284 0.16774 -0.28011 -0.21247 0.20337 0.17179 -0.11911 -0.28074 0.007158 0.30085 -0.083097 0.020095 0.046064 -0.14809 -0.1229 0.019417 0.077157 -0.12195 0.053987 -0.036059 -0.2497 -0.16524 0.010578 0.1393 0.10764 0.0064286 0.13768 0.028204 0.073078 0.10667 0.042692 -0.18941 0.33914 -0.0068087 -0.12524 -0.17969 0.042854 0.1305 -0.14945 0.19676 0.038152 0.10318 0.24925 -0.18508 -0.10757 0.071769 -0.052267 0.12814 0.035079 -0.36843 -0.18675 0.20087 0.14321 -0.28087 0.10031 0.25406 0.026396 -0.061071 -0.010475 0.12276 0.23299 0.19218 0.0070304 0.20193 -0.097337 0.16054 -0.016605 -0.11095 -0.082095 0.1631 0.07255 0.058715 -0.16943 0.2771 -0.13552 0.32524 -0.18386 -0.047302 -0.2891 -0.012381 -0.017917 -0.090339 -0.075438 
makes 0.033922 0.25706 -0.034609 0.26503 0.016927 -0.15024 -0.085148 0.017956 -0.0092851 0.068091 0.14229 0.30096 -0.09097 0.15063 -0.285 -0.2334 -0.13318 0.22487 0.16868 -0.28161 -0.21516 0.20665 0.17025 -0.12009 -0.27743 0.0056634 0.30249 -0.083684 0.019944 0.046346 -0.14805 -0.12243 0.018981 0.077609 -0.12231 0.053611 -0.035615 -0.2498 -0.16694 0.0085361 0.14248 0.10932 0.0094295 0.13713 0.028958 0.07243 0.10772 0.047546 -0.19038 0.34652 -0.01067 -0.12729 -0.18433 0.045891 0.1303 -0.15303 0.19751 0.038076 0.10311 0.25467 -0.18493 -0.10269 0.072117 -0.054048 0.12352 0.035539 -0.37355 -0.18382 0.20148 0.14323 -0.2848 0.099448 0.25509 0.024621 -0.059626 -0.012836 0.1223 0.22854 0.19573 0.010784 0.20084 -0.099216 0.15725 -0.012029 -0.11284 -0.081463 0.16404 0.070606 0.058859 -0.16747 0.27655 -0.14156 0.33063 -0.18703 -0.05061 -0.29121 -0.017607 -0.019913 -0.089955 -0.07818 
not 0.031352 0.26008 -0.032285 0.2731 0.017255 -0.15945 -0.086759 0.013557 -0.0099426 0.068949 0.14578 0.31455 -0.092535 0.15161 -0.29413 -0.23727 -0.1348 0.23121 0.17286 -0.2868 -0.22348 0.20949 0.17738 -0.11973 -0.28494 0.012585 0.31167 -0.085423 0.019488 0.047336 -0.15196 -0.1252 0.022862 0.07537 -0.12657 0.051642 -0.036185 -0.25944 -0.16734 0.012933 0.14472 0.10511 0.0047147 0.14046 0.028626 0.074346 0.10917 0.04433 -0.19628 0.35171 -0.0097244 -0.13073 -0.18842 0.048147 0.13768 -0.15602 0.20549 0.036133 0.10611 0.25642 -0.19042 -0.10649 0.073924 -0.056607 0.13026 0.03796 -0.37809 -0.19614 0.21062 0.15 -0.28922 0.10299 0.26438 0.027092 -0.067089 -0.017593 0.13461 0.23786 0.19465 0.013435 0.20494 -0.10666 0.16298 -0.01405 -0.11686 -0.085483 0.16997 0.077547 0.059476 -0.17561 0.28521 -0.14668 0.34083 -0.19118 -0.049838 -0.2997 -0.010511 -0.017861 -0.094242 -0.072734 
being 0.030443 0.24197 -0.031896 0.26028 0.011561 -0.15188 -0.08259 0.017926 -0.007644 0.062461 0.13946 0.29311 -0.08847 0.14052 -0.27651 -0.22491 -0.12739 0.21938 0.16163 -0.27524 -0.20773 0.20098 0.16501 -0.11489 -0.26937 0.0064247 0.29155 -0.080129 0.02355 0.044167 -0.14759 -0.12557 0.018694 0.071656 -0.11862 0.051902 -0.034498 -0.24686 -0.16582 0.01133 0.13465 0.10551 0.0080495 0.13238 0.030836 0.075137 0.10487 0.048425 -0.1848 0.3319 -0.0023731 -0.12287 -0.18297 0.045631 0.13104 -0.14486 0.19439 0.036423 0.10075 0.24488 -0.17831 -0.10174 0.072317 -0.053316 0.12471 0.033023 -0.36294 -0.18556 0.19729 0.13844 -0.27035 0.093644 0.24981 0.016407 -0.063402 -0.010078 0.11906 0.22184 0.18983 0.0084727 0.19616 -0.099228 0.1555 -0.009338 -0.11083 -0.078923 0.16147 0.070849 0.061754 -0.16512 0.27126 -0.13778 0.32283 -0.18186 -0.044604 -0.28718 -0.015599 -0.016556 -0.087031 -0.072642 
finally 0.034424 0.26403 -0.032997 0.27401 0.013214 -0.15744 -0.089239 0.01334 -0.0092054 0.072027 0.14861 0.31459 -0.093922 0.15202 -0.29378 -0.24375 -0.13768 0.23439 0.17578 -0.29438 -0.22112 0.21316 0.1788 -0.12617 -0.2871 0.012374 0.31715 -0.087182 0.020515 0.049123 -0.15459 -0.12879 0.018628 0.078578 -0.13042 0.055112 -0.037099 -0.26677 -0.17095 0.012973 0.14451 0.11268 0.0057148 0.14533 0.030654 0.073525 0.11149 0.044414 -0.19755 0.35794 -0.0072226 -0.13695 -0.19343 0.046656 0.13853 -0.15963 0.2093 0.040226 0.10599 0.26074 -0.19178 -0.10904 0.073492 -0.057616 0.13473 0.037694 -0.38683 -0.19188 0.21053 0.14916 -0.29531 0.10242 0.26408 0.026238 -0.063798 -0.011721 0.1304 0.23907 0.2009 0.009173 0.20957 -0.10489 0.16579 -0.013694 -0.11793 -0.081463 0.17056 0.07523 0.064163 -0.17586 0.28715 -0.14382 0.3457 -0.19495 -0.051959 -0.30561 -0.016562 -0.020058 -0.093389 -0.078851 
into 0.032464 0.24636 -0.034054 0.25569 0.011223 -0.14563 -0.082306 0.018999 -0.011106 0.065846 0.13299 0.28911 -0.084676 0.13771 -0.27443 -0.22286 -0.12529 0.21659 0.16304 -0.27271 -0.21158 0.19912 0.15999 -0.1143 -0.2658 0.01006 0.28951 -0.078316 0.019262 0.04401 -0.14717 -0.12246 0.017313 0.068445 -0.11742 0.051194 -0.029348 -0.23942 -0.15584 0.013306 0.135 0.10095 0.0070769 0.13048 0.028941 0.072307 0.10192 0.045999 -0.17896 0.3309 -0.0064345 -0.12464 -0.17402 0.044899 0.12671 -0.14479 0.18797 0.032278 0.09706 0.24083 -0.17684 -0.098787 0.063308 -0.054061 0.1286 0.03032 -0.35669 -0.18058 0.19302 0.13853 -0.269 0.092521 0.24749 0.026288 -0.058198 -0.014028 0.1197 0.22145 0.1865 0.0056691 0.19453 -0.097274 0.15443 -0.013046 -0.10877 -0.076651 0.15837 0.068546 0.056013 -0.16442 0.2587 -0.12996 0.31235 -0.1819 -0.047755 -0.27871 -0.014165 -0.01848 -0.084757 -0.072898 
new 0.03526 0.24641 -0.034019 0.26577 0.010797 -0.15154 -0.083303 0.010996 -0.0092384 0.066999 0.14545 0.29613 -0.088385 0.1453 -0.27883 -0.23076 -0.12892 0.21978 0.16793 -0.28191 -0.21265 0.19899 0.16952 -0.11873 -0.27398 0.0047252 0.29471 -0.082483 0.018951 0.045013 -0.14373 -0.12216 0.019019 0.07529 -0.12166 0.054252 -0.037783 -0.24432 -0.16466 0.0070745 0.13996 0.10492 0.010201 0.13516 0.03081 0.073373 0.098341 0.048205 -0.19089 0.33681 -0.010323 -0.1285 -0.17818 0.045055 0.13081 -0.15122 0.19458 0.039861 0.099616 0.24988 -0.17974 -0.10389 0.072814 -0.057914 0.129 0.035338 -0.36516 -0.18329 0.19745 0.14475 -0.27809 0.098927 0.25272 0.024826 -0.063527 -0.011039 0.1235 0.22891 0.18894 0.013328 0.19867 -0.10099 0.15493 -0.01258 -0.10983 -0.081937 0.1609 0.070241 0.056788 -0.16049 0.27045 -0.13529 0.31996 -0.18484 -0.052011 -0.28678 -0.011843 -0.021541 -0.087238 -0.076311 
can 0.029011 0.26902 -0.038033 0.2825 0.013368 -0.16027 -0.08689 0.017292 -0.0067045 0.067502 0.15267 0.31906 -0.092473 0.15315 -0.30367 -0.24885 -0.13754 0.24074 0.18147 -0.30354 -0.23155 0.21939 0.17917 -0.12569 -0.2939 0.011352 0.3213 -0.08879 0.025785 0.04875 -0.15658 -0.13295 0.019397 0.083593 -0.12673 0.056869 -0.037723 -0.27005 -0.17458 0.0071853 0.14637 0.11514 0.00615 0.14431 0.031896 0.076749 0.11477 0.046976 -0.20585 0.36239 -0.0083826 -0.13472 -0.19154 0.051255 0.14198 -0.16151 0.21318 0.042324 0.10877 0.26815 -0.19744 -0.1086 0.07823 -0.057712 0.13875 0.038024 -0.39188 -0.19847 0.2145 0.14978 -0.29519 0.1036 0.26421 0.025185 -0.071363 -0.0055601 0.13421 0.24647 0.20548 0.0098892 0.214 -0.10322 0.16695 -0.015909 -0.1183 -0.089042 0.16936 0.073723 0.061941 -0.18379 0.29125 -0.14394 0.34869 -0.19831 -0.055671 -0.30735 -0.016037 -0.025996 -0.098853 -0.079363 
him 0.027924 0.25562 -0.035254 0.26555 0.012625 -0.15696 -0.085954 0.022026 -0.0085498 0.064369 0.14778 0.3042 -0.090904 0.1445 -0.29608 -0.24035 -0.13152 0.22634 0.17405 -0.2835 -0.22082 0.20671 0.17602 -0.12053 -0.28118 0.0094765 0.30379 -0.085495 0.018711 0.047804 -0.14691 -0.12836 0.0096435 0.078989 -0.1268 0.050562 -0.032774 -0.25644 -0.16808 0.0050788 0.13995 0.107 0.00092863 0.14063 0.026196 0.076704 0.11336 0.049529 -0.19505 0.34945 -0.0083751 -0.13075 -0.18332 0.050738 0.13789 -0.153 0.19884 0.040136 0.10435 0.25608 -0.18517 -0.10219 0.072513 -0.052931 0.13169 0.031095 -0.38229 -0.19431 0.20323 0.14388 -0.28997 0.10108 0.26072 0.027227 -0.067834 -0.013648 0.12901 0.23513 0.1978 0.0092231 0.20787 -0.10129 0.15982 -0.018807 -0.10963 -0.083281 0.17122 0.068989 0.061158 -0.16869 0.27693 -0.14096 0.33365 -0.19123 -0.050566 -0.29735 -0.010759 -0.018123 -0.095847 -0.082024 
love 0.034075 0.26547 -0.034033 0.27159 0.012683 -0.15539 -0.084799 0.015039 -0.010979 0.067824 0.14527 0.30246 -0.092248 0.15185 -0.29275 -0.24149 -0.1377 0.22905 0.1709 -0.28578 -0.21834 0.21148 0.17803 -0.12617 -0.2806 0.0092594 0.31543 -0.088902 0.020914 0.052727 -0.15096 -0.12594 0.018534 0.079725 -0.12794 0.058706 -0.034816 -0.25315 -0.16946 0.01086 0.14711 0.10953 0.012903 0.14121 0.028382 0.079288 0.11281 0.044618 -0.19565 0.35317 -0.0067062 -0.13373 -0.18344 0.045689 0.13891 -0.15538 0.20461 0.037107 0.10266 0.25649 -0.1878 -0.11217 0.072885 -0.05744 0.13305 0.037226 -0.38326 -0.19369 0.20528 0.14697 -0.29226 0.10334 0.26021 0.030234 -0.065967 -0.015241 0.12776 0.23252 0.20088 0.01116 0.20634 -0.10373 0.16352 -0.011769 -0.11968 -0.081041 0.17376 0.073723 0.065205 -0.16907 0.28165 -0.14309 0.33728 -0.19184 -0.053803 -0.29528 -0.015338 -0.025275 -0.08661 -0.079369 
- 0.022877 0.2485 -0.035282 0.25771 0.021578 -0.14868 -0.085248 0.014381 -0.0022854 0.058236 0.13455 0.28935 -0.086951 0.15147 -0.28026 -0.23508 -0.12558 0.21708 0.15888 -0.27722 -0.20953 0.19634 0.16727 -0.11451 -0.26948 0.0062527 0.29026 -0.082002 0.01318 0.052811 -0.14393 -0.11959 0.017658 0.07544 -0.12548 0.051632 -0.038555 -0.24308 -0.16411 0.014278 0.13084 0.10378 0.015395 0.13076 0.025573 0.076201 0.10082 0.043349 -0.18825 0.32867 -0.0082046 -0.12084 -0.1858 0.043439 0.13494 -0.15426 0.19225 0.036128 0.10719 0.23977 -0.17391 -0.10293 0.074754 -0.046831 0.12642 0.038311 -0.36002 -0.17799 0.18882 0.13911 -0.2725 0.10417 0.24768 0.028625 -0.0571 -0.01223 0.11839 0.22006 0.19176 0.0027793 0.19709 -0.089252 0.15374 -0.0079238 -0.11033 -0.074885 0.15428 0.072294 0.055 -0.16797 0.2728 -0.14287 0.31729 -0.18534 -0.056178 -0.28665 -0.010814 -0.025305 -0.080083 -0.06983 
He 0.029016 0.25683 -0.03515 0.26685 0.0060557 -0.14879 -0.085725 0.013017 -0.0088763 0.065923 0.13876 0.29345 -0.092284 0.14329 -0.28858 -0.23225 -0.13151 0.22576 0.16729 -0.27954 -0.21334 0.2075 0.17144 -0.12325 -0.28324 0.013861 0.3037 -0.076619 0.024448 0.043535 -0.14833 -0.12564 0.013393 0.075893 -0.12433 0.049742 -0.034539 -0.24722 -0.16749 0.0099405 0.14051 0.10884 0.00068625 0.13608 0.024559 0.075293 0.11077 0.040808 -0.19192 0.35161 -0.016899 -0.12723 -0.18239 0.042641 0.13178 -0.15028 0.19377 0.039349 0.10573 0.25117 -0.18389 -0.10663 0.075801 -0.059064 0.1331 0.03379 -0.37245 -0.19429 0.20325 0.14027 -0.27678 0.10612 0.256 0.022089 -0.065549 -0.011551 0.12944 0.22763 0.19381 0.0093852 0.20192 -0.094316 0.1571 -0.015219 -0.1123 -0.082384 0.17263 0.068975 0.059117 -0.16754 0.26906 -0.13723 0.32776 -0.1867 -0.052227 -0.2919 -0.015313 -0.015515 -0.089366 -0.07754 
best 0.030316 0.25552 -0.02933 0.26392 0.0092665 -0.1517 -0.082476 0.015985 -0.006999 0.065101 0.13829 0.29585 -0.087627 0.14451 -0.2829 -0.23347 -0.13005 0.22146 0.16521 -0.28033 -0.21205 0.20479 0.17095 -0.1236 -0.27324 0.0048132 0.30039 -0.08425 0.020479 0.045066 -0.14578 -0.12741 0.019478 0.072527 -0.12138 0.049777 -0.035136 -0.2501 -0.16307 0.0078162 0.14322 0.10614 0.0086634 0.13522 0.0299 0.072662 0.10644 0.041985 -0.18949 0.33934 -0.0073881 -0.12866 -0.18344 0.044688 0.13225 -0.15122 0.19634 0.03938 0.099794 0.25009 -0.18233 -0.10468 0.071479 -0.057556 0.13226 0.034033 -0.37242 -0.18545 0.19889 0.14129 -0.27808 0.096581 0.25053 0.02493 -0.061306 -0.013633 0.12424 0.22699 0.19099 0.0073211 0.20402 -0.097736 0.16064 -0.0081195 -0.11383 -0.079467 0.16115 0.070996 0.056106 -0.16506 0.27458 -0.13915 0.32805 -0.18476 -0.05338 -0.28981 -0.01217 -0.017153 -0.088293 -0.075767 
about 0.030543 0.25366 -0.033827 0.26903 0.015585 -0.15003 -0.08564 0.017662 -0.0051726 0.065981 0.1474 0.30241 -0.090841 0.14744 -0.29107 -0.23638 -0.13336 0.22447 0.16888 -0.28458 -0.21695 0.20595 0.17643 -0.12094 -0.27944 0.0082812 0.30354 -0.080715 0.023396 0.047637 -0.14856 -0.12423 0.015893 0.070495 -0.1257 0.051959 -0.035016 -0.25404 -0.16606 0.01089 0.14065 0.11159 0.0086345 0.13856 0.029628 0.072532 0.10841 0.044769 -0.1898 0.349 -0.0055777 -0.12884 -0.184 0.043502 0.1318 -0.15598 0.19888 0.037693 0.10393 0.25212 -0.18416 -0.10673 0.072602 -0.052958 0.12949 0.033278 -0.37318 -0.19142 0.20557 0.1441 -0.28233 0.10256 0.25359 0.025753 -0.067558 -0.011201 0.1256 0.23157 0.19436 0.011237 0.20164 -0.099373 0.16125 -0.017752 -0.112 -0.083079 0.16463 0.07092 0.063587 -0.17024 0.27678 -0.13825 0.33357 -0.18604 -0.051235 -0.2923 -0.011718 -0.021968 -0.092312 -0.075632 
do 0.028353 0.24006 -0.026868 0.25886 0.0092796 -0.14594 -0.086568 0.017458 -0.0092084 0.056577 0.13427 0.28885 -0.091185 0.13003 -0.26974 -0.21779 -0.12539 0.21171 0.15781 -0.2672 -0.2003 0.19577 0.15997 -0.1091 -0.25906 0.0094693 0.28674 -0.084352 0.02112 0.048518 -0.14462 -0.11524 0.0093865 0.064953 -0.11874 0.051661 -0.035292 -0.23809 -0.14902 0.0071071 0.13001 0.1021 0.0050348 0.13196 0.033248 0.076376 0.10037 0.037778 -0.17288 0.31841 -0.0098506 -0.1159 -0.17392 0.048276 0.12046 -0.1435 0.18949 0.030463 0.098842 0.23837 -0.16867 -0.10136 0.068063 -0.051786 0.12112 0.032818 -0.35015 -0.17925 0.19962 0.1297 -0.26084 0.098519 0.24094 0.02413 -0.056934 -0.012204 0.11087 0.21846 0.18166 0.0088282 0.1849 -0.098564 0.14281 -0.012271 -0.11097 -0.081994 0.1503 0.074213 0.058172 -0.15821 0.25608 -0.13106 0.30682 -0.17273 -0.045436 -0.27987 -0.01312 -0.018274 -0.095141 -0.075126 
After 0.036015 0.25899 -0.032605 0.27133 0.012916 -0.15753 -0.084432 0.018543 -0.0076409 0.06887 0.14483 0.30508 -0.092856 0.14665 -0.29103 -0.23679 -0.1374 0.22966 0.17262 -0.28827 -0.21359 0.20773 0.17239 -0.12255 -0.28347 0.0083502 0.30964 -0.087329 0.020758 0.048926 -0.15642 -0.12864 0.017325 0.076882 -0.12494 0.05252 -0.037455 -0.25901 -0.1676 0.012735 0.14439 0.10986 0.0084932 0.14403 0.030832 0.075782 0.10876 0.049206 -0.19256 0.34919 -0.0094497 -0.13066 -0.18921 0.04744 0.13365 -0.15447 0.20535 0.040783 0.10525 0.25393 -0.18732 -0.10652 0.075308 -0.054437 0.13005 0.037193 -0.37737 -0.19229 0.20361 0.1464 -0.28457 0.10267 0.25828 0.029061 -0.067278 -0.010378 0.12916 0.23929 0.19806 0.01022 0.20571 -0.10106 0.16367 -0.017028 -0.11621 -0.084376 0.16678 0.07374 0.063008 -0.17027 0.2817 -0.14324 0.33692 -0.19037 -0.052728 -0.297 -0.011127 -0.016506 -0.092829 -0.076085 
were 0.029914 0.24484 -0.030706 0.25448 0.011042 -0.14971 -0.082047 0.014379 -0.008778 0.06198 0.13573 0.29105 -0.086103 0.13894 -0.27592 -0.2264 -0.12519 0.21518 0.16242 -0.26733 -0.20434 0.19685 0.16404 -0.11407 -0.26738 0.0097643 0.29313 -0.079218 0.017459 0.044667 -0.1428 -0.11871 0.016035 0.07516 -0.12018 0.057499 -0.035306 -0.24561 -0.15839 0.010451 0.13071 0.10435 0.0073001 0.13032 0.032366 0.074125 0.103 0.048687 -0.18278 0.33084 -0.0062115 -0.12373 -0.17125 0.048535 0.12698 -0.14608 0.1919 0.037352 0.096435 0.24065 -0.17235 -0.10092 0.071581 -0.055075 0.12361 0.030688 -0.35801 -0.18112 0.19709 0.13916 -0.26682 0.096205 0.24517 0.025159 -0.060494 -0.0062043 0.11977 0.22262 0.18897 0.012747 0.19633 -0.095476 0.1514 -0.015974 -0.10999 -0.077748 0.16009 0.069288 0.056138 -0.16373 0.26675 -0.1326 0.31705 -0.1802 -0.052126 -0.28116 -0.012192 -0.018567 -0.086257 -0.070814 
know 0.027956 0.25042 -0.034443 0.26679 0.016089 -0.14741 -0.081999 0.011828 -0.0077429 0.06683 0.13889 0.29651 -0.091297 0.14372 -0.27776 -0.2305 -0.1298 0.21659 0.15926 -0.27481 -0.20739 0.19978 0.16736 -0.11477 -0.27019 0.00963 0.29174 -0.084115 0.01444 0.045823 -0.14542 -0.11867 0.017652 0.07252 -0.12301 0.054162 -0.034118 -0.24468 -0.16443 0.0067112 0.14111 0.10955 0.006759 0.13463 0.028212 0.073989 0.10651 0.048343 -0.18219 0.33597 -0.0056239 -0.12549 -0.17622 0.043133 0.12609 -0.14979 0.19654 0.03839 0.098793 0.24474 -0.17654 -0.10427 0.067089 -0.055494 0.12584 0.033603 -0.36484 -0.18028 0.19776 0.13857 -0.27024 0.10011 0.24979 0.026911 -0.059282 -0.011291 0.11969 0.22919 0.18839 0.013184 0.19696 -0.093195 0.15401 -0.01623 -0.10786 -0.077365 0.15669 0.072208 0.058131 -0.16104 0.2672 -0.1365 0.32016 -0.18454 -0.050025 -0.28257 -0.017125 -0.0209 -0.088585 -0.074056 
today. 0.031032 0.24633 -0.031448 0.25566 0.015202 -0.14658 -0.082868 0.013916 -0.0086909 0.065541 0.13549 0.28835 -0.087495 0.14196 -0.27461 -0.22503 -0.1271 0.21579 0.16403 -0.27076 -0.20461 0.19684 0.16686 -0.11511 -0.26889 0.0078171 0.29397 -0.080058 0.021102 0.04505 -0.14248 -0.11752 0.019055 0.074074 -0.11954 0.049979 -0.032911 -0.24401 -0.15527 0.008596 0.13841 0.10267 0.0085246 0.13572 0.027482 0.072397 0.099146 0.045328 -0.1791 0.33067 -0.0085357 -0.1226 -0.17793 0.043743 0.12656 -0.1477 0.19234 0.040136 0.099101 0.24411 -0.17746 -0.10457 0.069265 -0.054026 0.12873 0.033611 -0.36166 -0.18056 0.19487 0.13972 -0.27185 0.096649 0.24724 0.026853 -0.060741 -0.013322 0.12093 0.22442 0.18837 0.0099558 0.19675 -0.096675 0.15413 -0.013835 -0.10781 -0.077506 0.16028 0.072607 0.05842 -0.16237 0.26853 -0.13532 0.31837 -0.1828 -0.050038 -0.2848 -0.014979 -0.014333 -0.087515 -0.07437 
see 0.032158 0.24722 -0.031615 0.25756 0.0099208 -0.14726 -0.083158 0.013457 -0.0052227 0.064573 0.1405 0.28762 -0.089769 0.13839 -0.27491 -0.22344 -0.13014 0.21691 0.16222 -0.27468 -0.20539 0.2 0.16367 -0.11566 -0.27266 0.0056751 0.29373 -0.080264 0.020331 0.044005 -0.14845 -0.11875 0.019969 0.076212 -0.1225 0.049593 -0.036258 -0.24593 -0.16186 0.0099752 0.13547 0.10092 0.0073314 0.13303 0.029497 0.073942 0.10267 0.045534 -0.18316 0.33195 -0.01086 -0.12384 -0.17882 0.044379 0.13002 -0.14297 0.19369 0.038194 0.096946 0.24094 -0.17801 -0.095964 0.067191 -0.055083 0.12441 0.033859 -0.35472 -0.18437 0.20189 0.14034 -0.27253 0.095414 0.24895 0.025734 -0.064004 -0.010507 0.12058 0.22248 0.18697 0.016357 0.1956 -0.098751 0.15325 -0.0089199 -0.10726 -0.075474 0.16055 0.068908 0.058126 -0.16424 0.2634 -0.13556 0.32061 -0.18115 -0.050287 -0.27756 -0.010575 -0.017965 -0.093159 -0.072407 
no 0.027305 0.24804 -0.034294 0.25493 0.016501 -0.15234 -0.082233 0.012115 -0.0085945 0.061987 0.13638 0.28964 -0.086957 0.14692 -0.27654 -0.22844 -0.13012 0.21635 0.16068 -0.26605 -0.20523 0.19643 0.17221 -0.11296 -0.26968 0.0076961 0.29437 -0.082543 0.023927 0.04284 -0.14099 -0.12264 0.01884 0.069303 -0.11839 0.050281 -0.034808 -0.23803 -0.15923 0.0094335 0.14036 0.10207 0.004148 0.13053 0.024322 0.068807 0.10321 0.052 -0.176 0.32665 -0.0065415 -0.12796 -0.18127 0.04496 0.13357 -0.14169 0.19286 0.037111 0.10209 0.23785 -0.18016 -0.10258 0.07067 -0.055287 0.12132 0.037915 -0.35473 -0.1788 0.19307 0.14428 -0.26442 0.091172 0.24977 0.023927 -0.063361 -0.0090977 0.1217 0.22027 0.18792 0.017827 0.19689 -0.095455 0.15486 -0.010771 -0.11268 -0.074565 0.16081 0.06953 0.054621 -0.15912 0.26713 -0.13002 0.31508 -0.18041 -0.050239 -0.2788 -0.010073 -0.017917 -0.086683 -0.0726 
it's 0.034699 0.26178 -0.035965 0.27734 0.018442 -0.15937 -0.087932 0.017282 -0.0093457 0.068407 0.15272 0.31271 -0.092723 0.15024 -0.29867 -0.24362 -0.14051 0.22969 0.17715 -0.29219 -0.22213 0.21004 0.17622 -0.12263 -0.28489 0.0052755 0.31402 -0.084204 0.020667 0.051393 -0.1531 -0.13099 0.014282 0.077429 -0.13139 0.057525 -0.034465 -0.25983 -0.17348 0.012303 0.14713 0.11325 0.0049917 0.1417 0.033036 0.081072 0.11314 0.047134 -0.19729 0.35898 -0.0099936 -0.13455 -0.19089 0.048575 0.13616 -0.15585 0.21469 0.039896 0.10624 0.26249 -0.18852 -0.11247 0.07372 -0.058191 0.13434 0.035061 -0.38505 -0.19342 0.21158 0.14799 -0.28838 0.10437 0.26451 0.025851 -0.06538 -0.0091903 0.13183 0.24176 0.20709 0.012392 0.2109 -0.10261 0.16361 -0.01533 -0.11911 -0.084705 0.16689 0.075067 0.066411 -0.1748 0.288 -0.14803 0.34214 -0.19683 -0.054245 -0.30309 -0.014289 -0.020012 -0.096157 -0.078487 
these 0.030356 0.24583 -0.032015 0.26304 0.015388 -0.15046 -0.081262 0.013294 -0.010201 0.063624 0.14255 0.29434 -0.088784 0.14412 -0.28098 -0.23211 -0.13053 0.21635 0.16362 -0.27477 -0.21103 0.20417 0.16875 -0.11686 -0.27531 0.010781 0.29294 -0.080491 0.020144 0.047051 -0.14858 -0.12135 0.01229 0.074529 -0.1209 0.051351 -0.031662 -0.24286 -0.16336 0.0090819 0.13857 0.10441 0.0054254 0.13219 0.028058 0.07212 0.10506 0.046842 -0.18667 0.33152 -0.005914 -0.12263 -0.17816 0.042834 0.12964 -0.14776 0.19432 0.034123 0.096502 0.24544 -0.17549 -0.1044 0.072237 -0.054361 0.12644 0.033896 -0.36194 -0.18323 0.19914 0.13878 -0.27117 0.099601 0.24937 0.02299 -0.062007 -0.011002 0.11726 0.22623 0.18984 0.0087871 0.20083 -0.09598 0.15203 -0.014417 -0.10923 -0.074712 0.16351 0.068983 0.059417 -0.16426 0.27345 -0.13632 0.32097 -0.18009 -0.049317 -0.28524 -0.012183 -0.014585 -0.090468 -0.072717 
over 0.028037 0.24772 -0.032662 0.26183 0.011893 -0.14958 -0.080996 0.017676 -0.0062873 0.064924 0.14161 0.29332 -0.086098 0.14637 -0.28123 -0.22864 -0.13057 0.2218 0.16458 -0.27811 -0.2099 0.20042 0.16859 -0.11754 -0.2735 0.0087384 0.29814 -0.080055 0.017348 0.045092 -0.14832 -0.12378 0.018534 0.074687 -0.12051 0.05421 -0.036657 -0.2489 -0.16193 0.008541 0.13854 0.10666 0.0089678 0.13611 0.031118 0.07062 0.10174 0.044383 -0.18559 0.33595 -0.0085292 -0.12935 -0.18364 0.043884 0.13105 -0.14526 0.19527 0.036788 0.09909 0.24643 -0.17893 -0.10392 0.071092 -0.053654 0.13148 0.036821 -0.36527 -0.18153 0.20096 0.14093 -0.27912 0.099912 0.24772 0.023986 -0.062346 -0.011537 0.12164 0.23132 0.18936 0.012036 0.19644 -0.096475 0.15473 -0.011991 -0.11539 -0.079312 0.16534 0.070488 0.061298 -0.16312 0.27241 -0.13547 0.32472 -0.18556 -0.052342 -0.28923 -0.014479 -0.018382 -0.087523 -0.076771 
face 0.030055 0.25359 -0.033559 0.26901 0.018677 -0.15687 -0.085011 0.015601 -0.0073264 0.067285 0.14408 0.30341 -0.087884 0.14653 -0.28718 -0.23908 -0.1344 0.22325 0.16833 -0.28636 -0.21592 0.20966 0.17275 -0.11715 -0.28148 0.0068921 0.30362 -0.084978 0.022523 0.046103 -0.15335 -0.12901 0.017014 0.075777 -0.12416 0.0504 -0.035292 -0.24967 -0.16565 0.011005 0.1415 0.10784 0.0059437 0.14051 0.030302 0.073642 0.1048 0.046643 -0.18863 0.34491 -0.0075635 -0.13116 -0.1844 0.047283 0.13236 -0.1521 0.19969 0.037907 0.101 0.25264 -0.18752 -0.10622 0.074748 -0.054734 0.12915 0.033366 -0.37567 -0.19065 0.20437 0.14575 -0.28003 0.10052 0.25646 0.026509 -0.06383 -0.012301 0.12215 0.23397 0.19525 0.011607 0.20378 -0.099611 0.1626 -0.010593 -0.11194 -0.083354 0.16434 0.074728 0.06044 -0.17323 0.27705 -0.13962 0.33245 -0.19421 -0.052676 -0.29495 -0.016558 -0.017384 -0.089953 -0.07773 
So 0.028597 0.23649 -0.028663 0.2444 0.012837 -0.14207 -0.07679 0.018266 -0.0089487 0.061925 0.13058 0.28233 -0.088579 0.13308 -0.26702 -0.21624 -0.1223 0.21193 0.15933 -0.26373 -0.19498 0.19559 0.1613 -0.11126 -0.25526 0.0074238 0.27693 -0.077031 0.022625 0.042739 -0.13583 -0.1169 0.021021 0.068878 -0.11443 0.056599 -0.032257 -0.23485 -0.15588 0.015793 0.12612 0.097978 0.0079374 0.12989 0.033071 0.070488 0.10125 0.044571 -0.17889 0.31832 -0.0091065 -0.114 -0.17056 0.042125 0.12155 -0.14097 0.18669 0.040266 0.095797 0.23364 -0.17017 -0.10081 0.069067 -0.055613 0.12504 0.031548 -0.34851 -0.17136 0.18605 0.12919 -0.25973 0.093148 0.23779 0.023389 -0.066057 -0.0042964 0.1176 0.21309 0.17825 0.0098194 0.18719 -0.089925 0.15275 -0.011447 -0.11156 -0.072413 0.15169 0.069918 0.0534 -0.15187 0.25795 -0.12819 0.30461 -0.17476 -0.044634 -0.26707 -0.0122 -0.013371 -0.083831 -0.06828 
life 0.037922 0.26634 -0.033268 0.27643 0.014305 -0.16137 -0.08607 0.014969 -0.006937 0.072847 0.15056 0.3161 -0.093984 0.15462 -0.29778 -0.24977 -0.14182 0.23358 0.17752 -0.30127 -0.2255 0.21591 0.18014 -0.12955 -0.29233 0.0090901 0.3197 -0.087624 0.023223 0.047059 -0.15298 -0.12815 0.018008 0.077413 -0.13613 0.056866 -0.040439 -0.26466 -0.17582 0.013779 0.14793 0.11119 0.0081871 0.14531 0.02988 0.077851 0.11284 0.046898 -0.19938 0.36453 -0.005585 -0.13569 -0.19837 0.049147 0.13723 -0.16165 0.21179 0.040827 0.10847 0.26176 -0.19291 -0.11099 0.076882 -0.056578 0.14041 0.03723 -0.39447 -0.19486 0.21439 0.15257 -0.29966 0.10611 0.26882 0.02676 -0.067122 -0.015047 0.1312 0.2458 0.202 0.0096843 0.21161 -0.10627 0.1658 -0.011954 -0.12178 -0.085262 0.17804 0.076388 0.065634 -0.18017 0.29594 -0.15225 0.34876 -0.19863 -0.054849 -0.3056 -0.010612 -0.020209 -0.098459 -0.076786 
two 0.031312 0.2621 -0.035521 0.26915 0.013 -0.15658 -0.089518 0.014468 -0.0136 0.069486 0.1458 0.30357 -0.090848 0.14714 -0.28959 -0.23466 -0.13421 0.2286 0.16981 -0.28848 -0.22192 0.20521 0.17531 -0.12699 -0.28176 0.010898 0.30861 -0.087315 0.019686 0.050491 -0.15407 -0.12779 0.020036 0.075694 -0.12356 0.052008 -0.038446 -0.25779 -0.16878 0.0075036 0.14402 0.10637 0.011182 0.1406 0.028998 0.072974 0.10439 0.050873 -0.19107 0.34731 -0.010478 -0.1341 -0.18328 0.047273 0.1366 -0.15448 0.20763 0.036416 0.10336 0.25758 -0.18664 -0.10691 0.075459 -0.059858 0.13255 0.034847 -0.37701 -0.18886 0.20733 0.15019 -0.28606 0.10267 0.26053 0.026455 -0.067275 -0.014092 0.12814 0.23995 0.19716 0.0092618 0.20736 -0.097021 0.16375 -0.015843 -0.11025 -0.082186 0.16984 0.07696 0.064251 -0.17494 0.28277 -0.14071 0.33593 -0.19135 -0.052162 -0.29995 -0.015532 -0.013081 -0.091531 -0.079019 
head 0.028235 0.24364 -0.031568 0.26157 0.012791 -0.14701 -0.083577 0.01839 -0.0091767 0.063403 0.14125 0.2918 -0.089355 0.1408 -0.28112 -0.22954 -0.12685 0.21617 0.16385 -0.27656 -0.20848 0.19534 0.16529 -0.11242 -0.26709 0.0055527 0.2933 -0.077776 0.016431 0.042828 -0.14481 -0.11962 0.012377 0.074424 -0.11938 0.051334 -0.035002 -0.24322 -0.15966 0.01046 0.13673 0.10222 0.0039186 0.13228 0.030749 0.072683 0.10327 0.044374 -0.18583 0.33166 -0.0081167 -0.12286 -0.17609 0.045544 0.12699 -0.14523 0.19184 0.040385 0.10198 0.24418 -0.17937 -0.099023 0.072379 -0.053806 0.12467 0.034921 -0.35816 -0.17948 0.19923 0.13984 -0.27119 0.098061 0.24861 0.027198 -0.065756 -0.0095637 0.12209 0.22556 0.18574 0.011838 0.19917 -0.09474 0.15163 -0.015534 -0.11383 -0.080362 0.16045 0.068786 0.061107 -0.16651 0.26481 -0.13462 0.317 -0.18141 -0.04884 -0.28144 -0.017104 -0.018914 -0.087376 -0.074249 
time 0.032574 0.26096 -0.03332 0.27242 0.014744 -0.15019 -0.087672 0.015752 -0.0087032 0.069722 0.14449 0.3092 -0.093857 0.15106 -0.29065 -0.23658 -0.1336 0.23101 0.17144 -0.2899 -0.2174 0.21193 0.17535 -0.12355 -0.28118 0.0073176 0.30945 -0.086329 0.023614 0.050816 -0.14819 -0.12701 0.016072 0.074228 -0.12694 0.053662 -0.036576 -0.25809 -0.17181 0.0084931 0.14362 0.10884 0.0045182 0.14448 0.028985 0.076325 0.10965 0.042564 -0.19132 0.34673 -0.01249 -0.13051 -0.18447 0.047219 0.13897 -0.1526 0.20287 0.039104 0.10953 0.25743 -0.18636 -0.10995 0.07738 -0.057469 0.13459 0.032888 -0.37812 -0.193 0.20862 0.15118 -0.29081 0.10212 0.25725 0.027509 -0.064149 -0.010318 0.12921 0.23604 0.19692 0.013265 0.20465 -0.10372 0.16197 -0.012594 -0.11098 -0.082489 0.16643 0.076766 0.060327 -0.17324 0.28031 -0.14283 0.33561 -0.19278 -0.059034 -0.30128 -0.012849 -0.019078 -0.09162 -0.079909 
we 0.037997 0.25695 -0.036717 0.27402 0.016498 -0.16251 -0.088826 0.013935 -0.011171 0.072661 0.14592 0.3102 -0.086896 0.15086 -0.29281 -0.24305 -0.13484 0.23266 0.17641 -0.29344 -0.22896 0.2102 0.16945 -0.12693 -0.28815 0.015866 0.30859 -0.086597 0.01785 0.046015 -0.14802 -0.12266 0.018254 0.078271 -0.13203 0.063936 -0.036209 -0.26304 -0.17173 0.013792 0.14124 0.11181 0.00727 0.13913 0.031927 0.078845 0.11204 0.04752 -0.19039 0.35102 -0.011695 -0.12796 -0.19031 0.047532 0.1321 -0.15982 0.20494 0.043665 0.10709 0.25463 -0.18774 -0.108 0.079914 -0.055099 0.13684 0.040538 -0.38477 -0.20032 0.21063 0.14789 -0.28874 0.10225 0.26409 0.021499 -0.059648 -0.011001 0.1298 0.24474 0.20287 0.017192 0.20704 -0.10262 0.16502 -0.016519 -0.11456 -0.088655 0.16879 0.07926 0.057778 -0.17508 0.28595 -0.14959 0.34098 -0.18769 -0.050865 -0.30067 -0.011108 -0.01644 -0.087313 -0.074815 
It's 0.033658 0.25259 -0.034167 0.2692 0.014909 -0.15548 -0.081836 0.021167 -0.0089589 0.069174 0.14458 0.30367 -0.092357 0.14693 -0.28721 -0.2394 -0.13524 0.22595 0.17329 -0.28423 -0.21774 0.20565 0.17318 -0.12161 -0.28018 0.0042732 0.30758 -0.083008 0.019595 0.051049 -0.14999 -0.12736 0.015932 0.074553 -0.12715 0.055458 -0.036827 -0.25385 -0.16488 0.012926 0.14233 0.11092 0.0068536 0.13874 0.029419 0.07753 0.10872 0.045718 -0.19328 0.34678 -0.0095477 -0.12821 -0.18676 0.047561 0.13339 -0.15149 0.20836 0.039691 0.10221 0.25714 -0.18743 -0.10881 0.073169 -0.055697 0.13039 0.037111 -0.37838 -0.18857 0.20923 0.14928 -0.28473 0.099415 0.26044 0.028563 -0.060747 -0.01212 0.12843 0.23515 0.1973 0.012503 0.20553 -0.10091 0.16115 -0.013091 -0.11554 -0.083922 0.16862 0.074045 0.06113 -0.17214 0.27695 -0.14845 0.33223 -0.19251 -0.051044 -0.29564 -0.012491 -0.021373 -0.090222 -0.077644 
Just 0.029522 0.22943 -0.023369 0.24018 0.0093693 -0.13848 -0.076279 0.017018 -0.0048847 0.061123 0.12556 0.27382 -0.080057 0.13271 -0.25553 -0.21018 -0.11968 0.19872 0.15291 -0.2572 -0.19422 0.18353 0.15583 -0.10888 -0.25134 0.0064588 0.27263 -0.073658 0.016438 0.043943 -0.13235 -0.11479 0.015661 0.066683 -0.11379 0.049468 -0.033916 -0.22948 -0.14572 0.0065949 0.12455 0.093794 0.0082684 0.12394 0.025105 0.066003 0.093897 0.039143 -0.17297 0.31087 -0.0077235 -0.1201 -0.16464 0.039796 0.12134 -0.13865 0.18028 0.034455 0.092656 0.2255 -0.16553 -0.097811 0.065595 -0.049348 0.11793 0.031791 -0.3354 -0.16741 0.17926 0.13108 -0.24945 0.090882 0.22893 0.023949 -0.058116 -0.0109 0.11158 0.20763 0.17611 0.0078007 0.18499 -0.092849 0.14239 -0.0068647 -0.099739 -0.07568 0.14829 0.064241 0.054961 -0.15295 0.2475 -0.1287 0.29678 -0.1701 -0.048054 -0.25921 -0.011822 -0.014798 -0.079375 -0.068196 
Facebook 0.026326 0.2211 -0.027875 0.23757 0.012683 -0.13391 -0.075285 0.015113 -0.0080827 0.058885 0.1282 0.26669 -0.079336 0.12883 -0.25478 -0.20906 -0.11535 0.19878 0.15058 -0.25007 -0.18931 0.18153 0.15408 -0.10866 -0.24714 0.0056527 0.26721 -0.073301 0.018389 0.040962 -0.13296 -0.11102 0.015724 0.067866 -0.11228 0.048182 -0.030168 -0.2229 -0.14631 0.0082586 0.1229 0.095104 0.0055906 0.12451 0.027759 0.066944 0.095083 0.03945 -0.17029 0.30525 -0.0053178 -0.1138 -0.16394 0.041003 0.11806 -0.13497 0.17571 0.035023 0.09245 0.22529 -0.1642 -0.091348 0.064312 -0.045197 0.11888 0.031604 -0.33292 -0.16458 0.17973 0.12934 -0.24986 0.089138 0.22806 0.023193 -0.058648 -0.010079 0.11125 0.2101 0.17004 0.010197 0.17833 -0.088543 0.14068 -0.015275 -0.10042 -0.072424 0.14626 0.063716 0.053642 -0.14962 0.24559 -0.12353 0.29111 -0.16846 -0.046555 -0.25778 -0.011801 -0.017925 -0.08186 -0.066218 
how 0.027878 0.24375 -0.03661 0.26678 0.017206 -0.1532 -0.081235 0.013093 -0.0080325 0.064889 0.13898 0.29235 -0.089062 0.14254 -0.28219 -0.22861 -0.12935 0.21498 0.16621 -0.27547 -0.20894 0.20339 0.17138 -0.1161 -0.27419 0.0099794 0.29576 -0.082197 0.020887 0.04268 -0.14307 -0.12244 0.017836 0.07477 -0.11867 0.05514 -0.036775 -0.25133 -0.16295 0.011327 0.14395 0.10776 0.007637 0.13176 0.031908 0.076615 0.10166 0.046323 -0.1855 0.33532 -0.0085946 -0.12187 -0.17983 0.044187 0.13201 -0.15003 0.19388 0.041153 0.10465 0.24743 -0.18417 -0.10497 0.071604 -0.053798 0.12644 0.0347 -0.36511 -0.19002 0.19787 0.14194 -0.27225 0.093459 0.25448 0.025332 -0.061403 -0.013707 0.12338 0.22577 0.18915 0.009134 0.19888 -0.097751 0.1557 -0.011495 -0.1059 -0.075772 0.16051 0.074396 0.061122 -0.16516 0.27332 -0.13748 0.32053 -0.18692 -0.047952 -0.28598 -0.019025 -0.022043 -0.088449 -0.076925 
